{"learner":{"attributes":{"scikit_learn":"{\"_estimator_type\": \"regressor\"}"},"feature_names":["water_level_cm_t_1","water_level_cm_t_3","water_level_cm_t_7","water_level_cm_t_14","precipitation_sum","snowfall_sum","rain_sum","temperature_2m_mean","wind_speed_10m_mean","surface_pressure_mean","precip_sum_3d","precip_sum_7d","precip_sum_14d","snow_sum_14d","snow_sum_30d","snow_sum_60d","precipitation_sum_n_75km","snowfall_sum_n_75km","rain_sum_n_75km","temperature_2m_mean_n_75km","wind_speed_10m_mean_n_75km","surface_pressure_mean_n_75km","precipitation_sum_s_75km","snowfall_sum_s_75km","rain_sum_s_75km","temperature_2m_mean_s_75km","wind_speed_10m_mean_s_75km","surface_pressure_mean_s_75km","precipitation_sum_e_75km","snowfall_sum_e_75km","rain_sum_e_75km","temperature_2m_mean_e_75km","wind_speed_10m_mean_e_75km","surface_pressure_mean_e_75km","precipitation_sum_w_75km","snowfall_sum_w_75km","rain_sum_w_75km","temperature_2m_mean_w_75km","wind_speed_10m_mean_w_75km","surface_pressure_mean_w_75km","add_month_one_hot_date_0","add_month_one_hot_date_1","add_month_one_hot_date_2","add_month_one_hot_date_3","add_month_one_hot_date_4","add_month_one_hot_date_5","add_month_one_hot_date_6","add_month_one_hot_date_7","add_month_one_hot_date_8","add_month_one_hot_date_9","add_month_one_hot_date_10","add_month_one_hot_date_11"],"feature_types":["float","float","float","float","float","float","float","float","float","float","float","float","float","float","float","float","float","float","float","float","float","float","float","float","float","float","float","float","float","float","float","float","float","float","float","float","float","float","float","float","int","int","int","int","int","int","int","int","int","int","int","int"],"gradient_booster":{"model":{"gbtree_model_param":{"num_parallel_tree":"1","num_trees":"500"},"iteration_indptr":[0,1,2,3,4,5,6,7,8,9,10,11,12,13,14,15,16,17,18,19,20,21,22,23,24,25,26,27,28,29,30,31,32,33,34,35,36,37,38,39,40,41,42,43,44,45,46,47,48,49,50,51,52,53,54,55,56,57,58,59,60,61,62,63,64,65,66,67,68,69,70,71,72,73,74,75,76,77,78,79,80,81,82,83,84,85,86,87,88,89,90,91,92,93,94,95,96,97,98,99,100,101,102,103,104,105,106,107,108,109,110,111,112,113,114,115,116,117,118,119,120,121,122,123,124,125,126,127,128,129,130,131,132,133,134,135,136,137,138,139,140,141,142,143,144,145,146,147,148,149,150,151,152,153,154,155,156,157,158,159,160,161,162,163,164,165,166,167,168,169,170,171,172,173,174,175,176,177,178,179,180,181,182,183,184,185,186,187,188,189,190,191,192,193,194,195,196,197,198,199,200,201,202,203,204,205,206,207,208,209,210,211,212,213,214,215,216,217,218,219,220,221,222,223,224,225,226,227,228,229,230,231,232,233,234,235,236,237,238,239,240,241,242,243,244,245,246,247,248,249,250,251,252,253,254,255,256,257,258,259,260,261,262,263,264,265,266,267,268,269,270,271,272,273,274,275,276,277,278,279,280,281,282,283,284,285,286,287,288,289,290,291,292,293,294,295,296,297,298,299,300,301,302,303,304,305,306,307,308,309,310,311,312,313,314,315,316,317,318,319,320,321,322,323,324,325,326,327,328,329,330,331,332,333,334,335,336,337,338,339,340,341,342,343,344,345,346,347,348,349,350,351,352,353,354,355,356,357,358,359,360,361,362,363,364,365,366,367,368,369,370,371,372,373,374,375,376,377,378,379,380,381,382,383,384,385,386,387,388,389,390,391,392,393,394,395,396,397,398,399,400,401,402,403,404,405,406,407,408,409,410,411,412,413,414,415,416,417,418,419,420,421,422,423,424,425,426,427,428,429,430,431,432,433,434,435,436,437,438,439,440,441,442,443,444,445,446,447,448,449,450,451,452,453,454,455,456,457,458,459,460,461,462,463,464,465,466,467,468,469,470,471,472,473,474,475,476,477,478,479,480,481,482,483,484,485,486,487,488,489,490,491,492,493,494,495,496,497,498,499,500],"tree_info":[0,0,0,0,0,0,0,0,0,0,0,0,0,0,0,0,0,0,0,0,0,0,0,0,0,0,0,0,0,0,0,0,0,0,0,0,0,0,0,0,0,0,0,0,0,0,0,0,0,0,0,0,0,0,0,0,0,0,0,0,0,0,0,0,0,0,0,0,0,0,0,0,0,0,0,0,0,0,0,0,0,0,0,0,0,0,0,0,0,0,0,0,0,0,0,0,0,0,0,0,0,0,0,0,0,0,0,0,0,0,0,0,0,0,0,0,0,0,0,0,0,0,0,0,0,0,0,0,0,0,0,0,0,0,0,0,0,0,0,0,0,0,0,0,0,0,0,0,0,0,0,0,0,0,0,0,0,0,0,0,0,0,0,0,0,0,0,0,0,0,0,0,0,0,0,0,0,0,0,0,0,0,0,0,0,0,0,0,0,0,0,0,0,0,0,0,0,0,0,0,0,0,0,0,0,0,0,0,0,0,0,0,0,0,0,0,0,0,0,0,0,0,0,0,0,0,0,0,0,0,0,0,0,0,0,0,0,0,0,0,0,0,0,0,0,0,0,0,0,0,0,0,0,0,0,0,0,0,0,0,0,0,0,0,0,0,0,0,0,0,0,0,0,0,0,0,0,0,0,0,0,0,0,0,0,0,0,0,0,0,0,0,0,0,0,0,0,0,0,0,0,0,0,0,0,0,0,0,0,0,0,0,0,0,0,0,0,0,0,0,0,0,0,0,0,0,0,0,0,0,0,0,0,0,0,0,0,0,0,0,0,0,0,0,0,0,0,0,0,0,0,0,0,0,0,0,0,0,0,0,0,0,0,0,0,0,0,0,0,0,0,0,0,0,0,0,0,0,0,0,0,0,0,0,0,0,0,0,0,0,0,0,0,0,0,0,0,0,0,0,0,0,0,0,0,0,0,0,0,0,0,0,0,0,0,0,0,0,0,0,0,0,0,0,0,0,0,0,0,0,0,0,0,0,0,0,0,0,0,0,0,0,0,0,0,0,0,0,0,0,0,0,0,0,0,0,0,0,0,0,0,0,0,0,0,0,0,0,0,0,0,0,0,0,0,0,0,0,0,0,0,0,0,0,0,0,0,0,0,0,0,0,0,0,0,0,0,0,0,0],"trees":[{"base_weights":[2.5428376E-1,-1.3355613E1,1.066879E1,-2.8710098E1,-9.89466E0,6.44505E0,2.0216486E1,-1.5640782E0,-1.12265E0,-1.2579206E1,-4.8779397E0,2.0963347E0,9.13203E0,1.7501316E1,2.6944931E1,-1.3929775E1,-1.0453518E1,-5.9175954E0,2.3850875E0,6.9754524E0,8.416726E-1,8.644903E0,1.3906755E1,1.7863209E1,5.306752E-1,1.1435126E0,1.5677515E0,-6.705951E-1,-8.625638E-1,-5.5079967E-1,-2.7784017E-1,-4.1873637E-1,-2.106878E-1,5.493164E-3,3.1764984E-1,2.3545125E-1,5.834548E-1,2.2484811E-2,4.2389986E-1,3.4970704E-1,4.7362337E-1,5.550713E-1,8.059754E-1,7.237797E-1,9.311744E-1],"categories":[],"categories_nodes":[],"categories_segments":[],"categories_sizes":[],"default_left":[0,0,0,0,0,0,0,0,0,0,0,0,0,0,0,0,0,0,0,0,0,0,0,0,0,0,0,0,0,0,0,0,0,0,0,0,0,0,0,0,0,0,0,0,0],"id":0,"left_children":[1,3,5,7,9,11,13,-1,-1,15,17,19,21,23,25,27,29,31,33,35,37,39,41,43,-1,-1,-1,-1,-1,-1,-1,-1,-1,-1,-1,-1,-1,-1,-1,-1,-1,-1,-1,-1,-1],"loss_changes":[1.9290936E5,3.1069203E4,3.096182E4,1.0353438E3,6.4435E3,6.243965E3,3.8398828E3,0E0,0E0,7.5584375E2,1.2977913E3,1.2551876E3,6.4964844E2,2.3664453E2,4.6890234E2,9.373047E1,2.858252E2,5.885083E2,1.979155E2,3.9183777E2,4.9007513E2,3.4768164E2,1.0683594E0,1.4507422E2,0E0,0E0,0E0,0E0,0E0,0E0,0E0,0E0,0E0,0E0,0E0,0E0,0E0,0E0,0E0,0E0,0E0,0E0,0E0,0E0,0E0],"parents":[2147483647,0,0,1,1,2,2,3,3,4,4,5,5,6,6,9,9,10,10,11,11,12,12,13,13,14,14,15,15,16,16,17,17,18,18,19,19,20,20,21,21,22,22,23,23],"right_children":[2,4,6,8,10,12,14,-1,-1,16,18,20,22,24,26,28,30,32,34,36,38,40,42,44,-1,-1,-1,-1,-1,-1,-1,-1,-1,-1,-1,-1,-1,-1,-1,-1,-1,-1,-1,-1,-1],"split_conditions":[2.183E3,2.164E3,2.199E3,2.158E3,2.176E3,2.19E3,2.207E3,-1.5640782E0,-1.12265E0,2.172E3,3.15E0,2.2E0,2.359E1,1.67E1,2.212E3,1E0,2.71E1,2.179E3,5.21E1,3.56E1,7.92E1,2.193E3,3.33E1,1.32E1,5.306752E-1,1.1435126E0,1.5677515E0,-6.705951E-1,-8.625638E-1,-5.5079967E-1,-2.7784017E-1,-4.1873637E-1,-2.106878E-1,5.493164E-3,3.1764984E-1,2.3545125E-1,5.834548E-1,2.2484811E-2,4.2389986E-1,3.4970704E-1,4.7362337E-1,5.550713E-1,8.059754E-1,7.237797E-1,9.311744E-1],"split_indices":[2,2,2,2,2,2,2,0,0,2,13,19,14,31,2,46,11,2,12,12,12,2,12,12,0,0,0,0,0,0,0,0,0,0,0,0,0,0,0,0,0,0,0,0,0],"split_type":[0,0,0,0,0,0,0,0,0,0,0,0,0,0,0,0,0,0,0,0,0,0,0,0,0,0,0,0,0,0,0,0,0,0,0,0,0,0,0,0,0,0,0,0,0],"sum_hessian":[1.359E3,5.89E2,7.7E2,1.07E2,4.82E2,5.35E2,2.35E2,7.3E1,3.4E1,3.13E2,1.69E2,2.05E2,3.3E2,1.7E2,6.5E1,1.88E2,1.25E2,1.48E2,2.1E1,4.1E1,1.64E2,3.02E2,2.8E1,1.6E2,1E1,3.7E1,2.8E1,1.67E2,2.1E1,1.11E2,1.4E1,5.9E1,8.9E1,1.4E1,7E0,2.9E1,1.2E1,1.57E2,7E0,1.04E2,1.98E2,1.5E1,1.3E1,3.3E1,1.27E2],"tree_param":{"num_deleted":"0","num_feature":"52","num_nodes":"45","size_leaf_vector":"1"}},{"base_weights":[-2.1948893E-1,-1.3124329E1,1.043602E1,-2.7997662E1,-9.582299E0,6.119652E0,1.9920485E1,-1.590465E0,-1.1855744E0,-1.2680939E1,-5.137001E0,1.6662129E0,8.917292E0,1.744357E1,1.405567E0,-7.0889205E-1,-1.1366737E1,-7.1674395E0,-3.3529592E0,2.7534264E-1,3.6304276E0,7.3694763E0,5.264529E-1,7.8148407E-1,9.833477E-1,-5.85962E-1,-4.5496264E-1,-3.8077927E-1,-2.7167174E-1,-2.0447509E-1,-1.291718E-1,-1.967063E-2,5.7425227E-2,1.257573E-1,2.0377305E-1,3.0777368E-1,4.0084502E-1],"categories":[],"categories_nodes":[],"categories_segments":[],"categories_sizes":[],"default_left":[0,0,0,0,0,0,0,0,0,0,0,0,0,0,0,0,0,0,0,0,0,0,0,0,0,0,0,0,0,0,0,0,0,0,0,0,0],"id":1,"left_children":[1,3,5,7,9,11,13,-1,-1,15,17,19,21,23,-1,-1,25,27,29,31,33,35,-1,-1,-1,-1,-1,-1,-1,-1,-1,-1,-1,-1,-1,-1,-1],"loss_changes":[1.8577227E5,3.192029E4,3.017254E4,1.1572188E3,6.753172E3,6.339293E3,4.1961875E3,0E0,0E0,4.113047E2,7.1855664E2,5.3993005E2,7.0325195E2,4.1854688E2,0E0,0E0,2.1253906E1,3.2444336E1,5.234839E1,6.877183E1,3.044934E1,7.87666E1,0E0,0E0,0E0,0E0,0E0,0E0,0E0,0E0,0E0,0E0,0E0,0E0,0E0,0E0,0E0],"parents":[2147483647,0,0,1,1,2,2,3,3,4,4,5,5,6,6,9,9,10,10,11,11,12,12,13,13,16,16,17,17,18,18,19,19,20,20,21,21],"right_children":[2,4,6,8,10,12,14,-1,-1,16,18,20,22,24,-1,-1,26,28,30,32,34,36,-1,-1,-1,-1,-1,-1,-1,-1,-1,-1,-1,-1,-1,-1,-1],"split_conditions":[2.183E3,2.164E3,2.199E3,2.155E3,2.175E3,2.19E3,2.209E3,-1.590465E0,-1.1855744E0,2.171E3,2.179E3,2.187E3,2.194E3,2.203E3,1.405567E0,-7.0889205E-1,2.174E3,2.178E3,2.181E3,2.185E3,2.188E3,2.192E3,5.264529E-1,7.8148407E-1,9.833477E-1,-5.85962E-1,-4.5496264E-1,-3.8077927E-1,-2.7167174E-1,-2.0447509E-1,-1.291718E-1,-1.967063E-2,5.7425227E-2,1.257573E-1,2.0377305E-1,3.0777368E-1,4.0084502E-1],"split_indices":[0,0,0,0,0,0,0,0,0,0,0,0,0,0,0,0,0,0,0,0,0,0,0,0,0,0,0,0,0,0,0,0,0,0,0,0,0],"split_type":[0,0,0,0,0,0,0,0,0,0,0,0,0,0,0,0,0,0,0,0,0,0,0,0,0,0,0,0,0,0,0,0,0,0,0,0,0],"sum_hessian":[1.349E3,6.1E2,7.39E2,1.16E2,4.94E2,5.09E2,2.3E2,5.8E1,5.8E1,2.9E2,2.04E2,1.97E2,3.12E2,1.79E2,5.1E1,1.31E2,1.59E2,9.4E1,1.1E2,1.16E2,8.1E1,1.62E2,1.5E2,1.03E2,7.6E1,1.34E2,2.5E1,7.2E1,2.2E1,5.4E1,5.6E1,6.6E1,5E1,2.5E1,5.6E1,6E1,1.02E2],"tree_param":{"num_deleted":"0","num_feature":"52","num_nodes":"37","size_leaf_vector":"1"}},{"base_weights":[4.2851526E-2,-1.2449953E1,9.803839E0,-2.6139729E1,-9.160091E0,6.0281878E0,1.8930975E1,-1.5096902E0,-1.1094408E0,-1.1760711E1,-4.3970766E0,1.7564418E0,8.5148115E0,1.659792E1,1.3448349E0,-1.3025973E1,-9.798582E0,-6.2815166E0,-3.1589026E0,2.4246131E-1,3.5173151E0,7.0385356E0,1.0075743E1,7.561134E-1,9.618804E-1,-7.0139587E-1,-6.036812E-1,-5.3111553E-1,-4.2473373E-1,-1.4223634E-1,-3.2000095E-1,-1.9970754E-1,-1.185826E-1,-2.0549318E-2,5.271098E-2,1.330718E-1,1.9277304E-1,2.8639048E-1,3.7934914E-1,4.6841264E-1,5.555274E-1],"categories":[],"categories_nodes":[],"categories_segments":[],"categories_sizes":[],"default_left":[0,0,0,0,0,0,0,0,0,0,0,0,0,0,0,0,0,0,0,0,0,0,0,0,0,0,0,0,0,0,0,0,0,0,0,0,0,0,0,0,0],"id":2,"left_children":[1,3,5,7,9,11,13,-1,-1,15,17,19,21,23,-1,25,27,29,31,33,35,37,39,-1,-1,-1,-1,-1,-1,-1,-1,-1,-1,-1,-1,-1,-1,-1,-1,-1,-1],"loss_changes":[1.6291477E5,2.6152516E4,2.5731547E4,1.1399844E3,5.819621E3,5.6360684E3,3.6235703E3,0E0,0E0,6.3204297E2,3.74479E2,5.243351E2,7.0334766E2,3.790664E2,0E0,5.251953E0,4.295117E1,8.673584E0,5.8912476E1,5.7190514E1,1.607544E1,8.306348E1,1.378418E1,0E0,0E0,0E0,0E0,0E0,0E0,0E0,0E0,0E0,0E0,0E0,0E0,0E0,0E0,0E0,0E0,0E0,0E0],"parents":[2147483647,0,0,1,1,2,2,3,3,4,4,5,5,6,6,9,9,10,10,11,11,12,12,13,13,15,15,16,16,17,17,18,18,19,19,20,20,21,21,22,22],"right_children":[2,4,6,8,10,12,14,-1,-1,16,18,20,22,24,-1,26,28,30,32,34,36,38,40,-1,-1,-1,-1,-1,-1,-1,-1,-1,-1,-1,-1,-1,-1,-1,-1,-1,-1],"split_conditions":[2.183E3,2.165E3,2.199E3,2.155E3,2.176E3,2.19E3,2.209E3,-1.5096902E0,-1.1094408E0,2.172E3,2.179E3,2.187E3,2.194E3,2.204E3,1.3448349E0,2.17E3,2.174E3,9.771E2,2.181E3,2.185E3,2.188E3,2.192E3,2.196E3,7.561134E-1,9.618804E-1,-7.0139587E-1,-6.036812E-1,-5.3111553E-1,-4.2473373E-1,-1.4223634E-1,-3.2000095E-1,-1.9970754E-1,-1.185826E-1,-2.0549318E-2,5.271098E-2,1.330718E-1,1.9277304E-1,2.8639048E-1,3.7934914E-1,4.6841264E-1,5.555274E-1],"split_indices":[0,0,0,0,0,0,0,0,0,0,0,0,0,0,0,0,0,21,0,0,0,0,0,0,0,0,0,0,0,0,0,0,0,0,0,0,0,0,0,0,0],"split_type":[0,0,0,0,0,0,0,0,0,0,0,0,0,0,0,0,0,0,0,0,0,0,0,0,0,0,0,0,0,0,0,0,0,0,0,0,0,0,0,0,0],"sum_hessian":[1.334E3,5.85E2,7.49E2,1.12E2,4.73E2,5.31E2,2.18E2,5.2E1,6E1,3.05E2,1.68E2,1.96E2,3.35E2,1.71E2,4.7E1,1.82E2,1.23E2,6.5E1,1.03E2,1.06E2,9E1,1.75E2,1.6E2,1.14E2,5.7E1,8.2E1,1E2,7.1E1,5.2E1,3E0,6.2E1,4.8E1,5.5E1,5.9E1,4.7E1,2.8E1,6.2E1,5.5E1,1.2E2,1.01E2,5.9E1],"tree_param":{"num_deleted":"0","num_feature":"52","num_nodes":"41","size_leaf_vector":"1"}},{"base_weights":[1.5776762E-1,-1.1624297E1,9.474693E0,-2.5233644E1,-8.658996E0,5.569622E0,1.7418758E1,-1.4296649E0,-1.0491982E0,-1.1069674E1,-4.2267456E0,1.6658546E0,7.993345E0,1.54955015E1,1.2697952E0,-1.2263013E1,-9.2543745E0,-6.0564446E0,-2.9613175E0,2.1292941E-1,3.355933E0,6.7145295E0,4.6865007E-1,6.6736233E-1,8.587573E-1,-6.667806E-1,-5.6897455E-1,-4.9874088E-1,-3.984016E-1,-1.368988E-1,-3.0812916E-1,-1.85043E-1,-1.0759737E-1,-1.8492078E-2,4.9688723E-2,1.21775165E-1,1.8530922E-1,2.819638E-1,3.6174732E-1],"categories":[],"categories_nodes":[],"categories_segments":[],"categories_sizes":[],"default_left":[0,0,0,0,0,0,0,0,0,0,0,0,0,0,0,0,0,0,0,0,0,0,0,0,0,0,0,0,0,0,0,0,0,0,0,0,0,0,0],"id":3,"left_children":[1,3,5,7,9,11,13,-1,-1,15,17,19,21,23,-1,25,27,29,31,33,35,37,-1,-1,-1,-1,-1,-1,-1,-1,-1,-1,-1,-1,-1,-1,-1,-1,-1],"loss_changes":[1.494009E5,2.403536E4,2.3479805E4,9.276797E2,5.2421484E3,4.821588E3,3.442E3,0E0,0E0,5.7971875E2,3.8956714E2,4.830302E2,4.9282617E2,5.0685547E2,0E0,2.8302734E1,4.192285E1,8.1345215E0,5.5483643E1,4.9058296E1,2.0310425E1,5.265088E1,0E0,0E0,0E0,0E0,0E0,0E0,0E0,0E0,0E0,0E0,0E0,0E0,0E0,0E0,0E0,0E0,0E0],"parents":[2147483647,0,0,1,1,2,2,3,3,4,4,5,5,6,6,9,9,10,10,11,11,12,12,13,13,15,15,16,16,17,17,18,18,19,19,20,20,21,21],"right_children":[2,4,6,8,10,12,14,-1,-1,16,18,20,22,24,-1,26,28,30,32,34,36,38,-1,-1,-1,-1,-1,-1,-1,-1,-1,-1,-1,-1,-1,-1,-1,-1,-1],"split_conditions":[2.183E3,2.165E3,2.198E3,2.156E3,2.176E3,2.19E3,2.209E3,-1.4296649E0,-1.0491982E0,2.172E3,2.179E3,2.187E3,2.194E3,2.202E3,1.2697952E0,2.17E3,2.174E3,9.815E2,2.181E3,2.185E3,2.188E3,2.192E3,4.6865007E-1,6.6736233E-1,8.587573E-1,-6.667806E-1,-5.6897455E-1,-4.9874088E-1,-3.984016E-1,-1.368988E-1,-3.0812916E-1,-1.85043E-1,-1.0759737E-1,-1.8492078E-2,4.9688723E-2,1.21775165E-1,1.8530922E-1,2.819638E-1,3.6174732E-1],"split_indices":[0,0,0,0,0,0,0,0,0,0,0,0,0,0,0,0,0,9,0,0,0,0,0,0,0,0,0,0,0,0,0,0,0,0,0,0,0,0,0],"split_type":[0,0,0,0,0,0,0,0,0,0,0,0,0,0,0,0,0,0,0,0,0,0,0,0,0,0,0,0,0,0,0,0,0,0,0,0,0,0,0],"sum_hessian":[1.359E3,6E2,7.59E2,1.06E2,4.94E2,5.1E2,2.49E2,5.6E1,5E1,3.19E2,1.75E2,1.96E2,3.14E2,2.03E2,4.6E1,1.89E2,1.3E2,7E1,1.05E2,1.06E2,9E1,1.66E2,1.48E2,9.3E1,1.1E2,7.9E1,1.1E2,7.9E1,5.1E1,3E0,6.7E1,5.3E1,5.2E1,6.1E1,4.5E1,2.7E1,6.3E1,5.8E1,1.08E2],"tree_param":{"num_deleted":"0","num_feature":"52","num_nodes":"39","size_leaf_vector":"1"}},{"base_weights":[-4.8098765E-2,-1.1099974E1,8.950083E0,-2.3457424E1,-8.144757E0,5.282342E0,1.6597168E1,-1.290528E0,-9.141187E-1,-1.0798042E1,-4.4876714E0,1.5258875E0,7.6844525E0,1.4498671E1,2.3468449E1,-5.7994384E-1,-4.5757818E-1,-6.3495765E0,-2.849685E0,-2.71479E-2,2.8084593E0,6.505666E0,8.955936E0,6.317266E-1,8.058624E-1,1.0016149E0,1.3265301E0,-3.452696E-1,-2.6079816E-1,-1.7914777E-1,-1.1054261E-1,-2.029541E-2,3.4193803E-2,1.0112329E-1,1.7323609E-1,2.7392462E-1,3.460388E-1,4.188485E-1,4.9817353E-1],"categories":[],"categories_nodes":[],"categories_segments":[],"categories_sizes":[],"default_left":[0,0,0,0,0,0,0,0,0,0,0,0,0,0,0,0,0,0,0,0,0,0,0,0,0,0,0,0,0,0,0,0,0,0,0,0,0,0,0],"id":4,"left_children":[1,3,5,7,9,11,13,-1,-1,15,17,19,21,23,25,-1,-1,27,29,31,33,35,37,-1,-1,-1,-1,-1,-1,-1,-1,-1,-1,-1,-1,-1,-1,-1,-1],"loss_changes":[1.3494917E5,2.2048969E4,2.0891875E4,9.5290234E2,4.7352676E3,4.5631475E3,3.1492266E3,0E0,0E0,2.6964062E2,6.193086E2,3.9646024E2,4.0486523E2,3.6360938E2,4.7240234E1,0E0,0E0,2.5099365E1,4.5012024E1,2.4784586E1,4.921692E1,3.2012695E1,1.703125E0,0E0,0E0,0E0,0E0,0E0,0E0,0E0,0E0,0E0,0E0,0E0,0E0,0E0,0E0,0E0,0E0],"parents":[2147483647,0,0,1,1,2,2,3,3,4,4,5,5,6,6,9,9,10,10,11,11,12,12,13,13,14,14,17,17,18,18,19,19,20,20,21,21,22,22],"right_children":[2,4,6,8,10,12,14,-1,-1,16,18,20,22,24,26,-1,-1,28,30,32,34,36,38,-1,-1,-1,-1,-1,-1,-1,-1,-1,-1,-1,-1,-1,-1,-1,-1],"split_conditions":[2.183E3,2.165E3,2.198E3,2.158E3,2.175E3,2.19E3,2.208E3,-1.290528E0,-9.141187E-1,2.172E3,2.179E3,2.186E3,2.194E3,2.202E3,2.213E3,-5.7994384E-1,-4.5757818E-1,2.177E3,2.181E3,2.185E3,2.188E3,2.192E3,2.196E3,6.317266E-1,8.058624E-1,1.0016149E0,1.3265301E0,-3.452696E-1,-2.6079816E-1,-1.7914777E-1,-1.1054261E-1,-2.029541E-2,3.4193803E-2,1.0112329E-1,1.7323609E-1,2.7392462E-1,3.460388E-1,4.188485E-1,4.9817353E-1],"split_indices":[0,0,0,0,0,0,0,0,0,0,0,0,0,0,0,0,0,0,0,0,0,0,0,0,0,0,0,0,0,0,0,0,0,0,0,0,0,0,0],"split_type":[0,0,0,0,0,0,0,0,0,0,0,0,0,0,0,0,0,0,0,0,0,0,0,0,0,0,0,0,0,0,0,0,0,0,0,0,0,0,0],"sum_hessian":[1.355E3,6.08E2,7.47E2,1.16E2,4.92E2,5.06E2,2.41E2,7.7E1,3.9E1,2.84E2,2.08E2,1.98E2,3.08E2,1.87E2,5.4E1,1.87E2,9.7E1,9.6E1,1.12E2,9E1,1.08E2,1.63E2,1.45E2,9.1E1,9.6E1,2.9E1,2.5E1,6.1E1,3.5E1,5E1,6.2E1,5.9E1,3.1E1,5.1E1,5.7E1,5.1E1,1.12E2,9.8E1,4.7E1],"tree_param":{"num_deleted":"0","num_feature":"52","num_nodes":"39","size_leaf_vector":"1"}},{"base_weights":[7.5634874E-2,-9.906726E0,8.422967E0,-2.2652437E1,-7.333812E0,5.2349677E0,1.5576755E1,-1.2936391E0,-9.436305E-1,-9.787007E0,-3.559791E0,1.7248724E0,7.0827456E0,1.3631106E1,2.1413492E1,-1.085863E1,-8.09829E0,-4.1416516E0,2.4461734E0,5.7995944E0,7.0833224E-1,8.011814E0,5.929608E0,1.3814993E1,3.6089915E-1,7.71658E-1,1.181229E0,-5.1944846E-1,-6.918754E-1,-4.362516E-1,-2.2596319E-1,-3.0298468E-1,-1.2137308E-1,4.5458112E-2,2.8124186E-1,2.1815708E-1,4.8120794E-1,1.680666E-2,2.6228362E-1,3.597974E-1,5.240648E-1,1.872053E-1,3.2539964E-1,6.137309E-1,7.4107236E-1],"categories":[],"categories_nodes":[],"categories_segments":[],"categories_sizes":[],"default_left":[0,0,0,0,0,0,0,0,0,0,0,0,0,0,0,0,0,0,0,0,0,0,0,0,0,0,0,0,0,0,0,0,0,0,0,0,0,0,0,0,0,0,0,0,0],"id":5,"left_children":[1,3,5,7,9,11,13,-1,-1,15,17,19,21,23,25,27,29,31,33,35,37,39,41,43,-1,-1,-1,-1,-1,-1,-1,-1,-1,-1,-1,-1,-1,-1,-1,-1,-1,-1,-1,-1,-1],"loss_changes":[1.1490679E5,2.042825E4,1.7045965E4,7.898086E2,4.8165664E3,3.3669248E3,2.3313984E3,0E0,0E0,4.8572852E2,7.3701514E2,7.456154E2,3.178203E2,1.0783594E2,3.7588672E2,1.2346484E2,2.4544531E2,6.0998926E2,8.771331E1,1.5578552E2,2.4480063E2,2.9932422E2,1.7282715E2,8.162695E1,0E0,0E0,0E0,0E0,0E0,0E0,0E0,0E0,0E0,0E0,0E0,0E0,0E0,0E0,0E0,0E0,0E0,0E0,0E0,0E0,0E0],"parents":[2147483647,0,0,1,1,2,2,3,3,4,4,5,5,6,6,9,9,10,10,11,11,12,12,13,13,14,14,15,15,16,16,17,17,18,18,19,19,20,20,21,21,22,22,23,23],"right_children":[2,4,6,8,10,12,14,-1,-1,16,18,20,22,24,26,28,30,32,34,36,38,40,42,44,-1,-1,-1,-1,-1,-1,-1,-1,-1,-1,-1,-1,-1,-1,-1,-1,-1,-1,-1,-1,-1],"split_conditions":[2.184E3,2.164E3,2.199E3,2.155E3,2.176E3,2.19E3,2.208E3,-1.2936391E0,-9.436305E-1,2.172E3,8.82E0,2.2E0,7E0,1E0,2.695E1,1.44E1,2.42E1,2.18E3,3.26E1,2.37E1,8.8E0,1.37E1,2.192E3,2.202E3,3.6089915E-1,7.71658E-1,1.181229E0,-5.1944846E-1,-6.918754E-1,-4.362516E-1,-2.2596319E-1,-3.0298468E-1,-1.2137308E-1,4.5458112E-2,2.8124186E-1,2.1815708E-1,4.8120794E-1,1.680666E-2,2.6228362E-1,3.597974E-1,5.240648E-1,1.872053E-1,3.2539964E-1,6.137309E-1,7.4107236E-1],"split_indices":[2,2,2,2,2,2,2,0,0,2,15,19,31,45,15,7,11,2,11,11,16,11,2,2,0,0,0,0,0,0,0,0,0,0,0,0,0,0,0,0,0,0,0,0,0],"split_type":[0,0,0,0,0,0,0,0,0,0,0,0,0,0,0,0,0,0,0,0,0,0,0,0,0,0,0,0,0,0,0,0,0,0,0,0,0,0,0,0,0,0,0,0,0],"sum_hessian":[1.377E3,6.27E2,7.5E2,1.04E2,5.23E2,5.2E2,2.3E2,5.3E1,5.1E1,3.16E2,2.07E2,1.8E2,3.4E2,1.75E2,5.5E1,1.9E2,1.26E2,1.89E2,1.8E1,3.5E1,1.45E2,1.85E2,1.55E2,1.69E2,6E0,1.7E1,3.8E1,1.68E2,2.2E1,1.06E2,2E1,8.8E1,1.01E2,1.3E1,5E0,2.7E1,8E0,1.35E2,1E1,1.42E2,4.3E1,3.4E1,1.21E2,7.2E1,9.7E1],"tree_param":{"num_deleted":"0","num_feature":"52","num_nodes":"45","size_leaf_vector":"1"}},{"base_weights":[1.2661234E-1,-9.329159E0,8.922185E0,-2.1764229E1,-6.686702E0,5.5077133E0,1.5430749E1,-1.2005388E0,-8.414144E-1,-9.526143E0,-2.9045787E0,2.9562883E0,7.201061E0,1.3808366E1,1.1504014E0,-5.304848E-1,-7.810152E0,-4.8481154E0,-1.6020715E0,1.3455039E0,4.0325346E0,3.0525872E-1,7.999795E0,5.761149E-1,7.567509E-1,-2.229468E-1,-4.0178043E-1,-1.194615E-1,-2.744527E-1,-1.0081724E-1,1.1088054E-2,1.6310173E-1,3.9003093E-2,1.8083017E-1,3.4449086E-1,3.8318062E-1,4.8126116E-1],"categories":[],"categories_nodes":[],"categories_segments":[],"categories_sizes":[],"default_left":[0,0,0,0,0,0,0,0,0,0,0,0,0,0,0,0,0,0,0,0,0,0,0,0,0,0,0,0,0,0,0,0,0,0,0,0,0],"id":6,"left_children":[1,3,5,7,9,11,13,-1,-1,15,17,19,21,23,-1,-1,25,27,29,31,33,-1,35,-1,-1,-1,-1,-1,-1,-1,-1,-1,-1,-1,-1,-1,-1],"loss_changes":[1.1269397E5,2.1311484E4,1.5515773E4,8.600664E2,5.771451E3,1.9747578E3,2.6449766E3,0E0,0E0,4.8982422E2,5.820657E2,3.1702405E2,1.9362402E2,4.3520312E2,0E0,0E0,5.7103027E1,1.3345264E2,1.0698181E2,7.981563E1,1.0699829E2,0E0,1.2027344E1,0E0,0E0,0E0,0E0,0E0,0E0,0E0,0E0,0E0,0E0,0E0,0E0,0E0,0E0],"parents":[2147483647,0,0,1,1,2,2,3,3,4,4,5,5,6,6,9,9,10,10,11,11,12,12,13,13,16,16,17,17,18,18,19,19,20,20,22,22],"right_children":[2,4,6,8,10,12,14,-1,-1,16,18,20,22,24,-1,-1,26,28,30,32,34,-1,36,-1,-1,-1,-1,-1,-1,-1,-1,-1,-1,-1,-1,-1,-1],"split_conditions":[2.185E3,2.165E3,2.199E3,2.157E3,2.176E3,2.192E3,2.211E3,-1.2005388E0,-8.414144E-1,2.172E3,2.18E3,2.188E3,2.194E3,2.202E3,1.1504014E0,-5.304848E-1,2.169E3,2.174E3,2.83E1,2.184E3,1.49E1,3.0525872E-1,1.09E1,5.761149E-1,7.567509E-1,-2.229468E-1,-4.0178043E-1,-1.194615E-1,-2.744527E-1,-1.0081724E-1,1.1088054E-2,1.6310173E-1,3.9003093E-2,1.8083017E-1,3.4449086E-1,3.8318062E-1,4.8126116E-1],"split_indices":[1,1,1,1,1,1,1,0,0,1,1,1,1,1,0,0,3,3,11,3,10,0,10,0,0,0,0,0,0,0,0,0,0,0,0,0,0],"split_type":[0,0,0,0,0,0,0,0,0,0,0,0,0,0,0,0,0,0,0,0,0,0,0,0,0,0,0,0,0,0,0,0,0,0,0,0,0],"sum_hessian":[1.353E3,6.52E2,7.01E2,1.13E2,5.39E2,4.61E2,2.4E2,7.5E1,3.8E1,3.07E2,2.32E2,1.85E2,2.76E2,2E2,4E1,1.85E2,1.22E2,9.2E1,1.4E2,7.5E1,1.1E2,1.2E2,1.56E2,7.7E1,1.23E2,9E0,1.13E2,2E1,7.2E1,1.14E2,2.6E1,1.6E1,5.9E1,9.8E1,1.2E1,1.34E2,2.2E1],"tree_param":{"num_deleted":"0","num_feature":"52","num_nodes":"37","size_leaf_vector":"1"}},{"base_weights":[4.924696E-2,-9.632482E0,7.733498E0,-2.0513527E1,-7.086511E0,4.6977415E0,1.4635297E1,-1.180185E0,-8.616397E-1,-9.359838E0,-3.8692858E0,1.351589E0,6.6100736E0,1.2705934E1,1.9835545E1,-5.2645415E-1,-8.281666E0,-5.249036E0,-2.5311325E0,2.276962E-2,2.409512E0,5.452228E0,7.8568635E0,5.5486965E-1,6.9036543E-1,8.492543E-1,1.1509714E0,-4.2745313E-1,-3.3536378E-1,-2.938332E-1,-2.2081247E-1,-1.3730274E-1,-3.911884E-2,5.7209473E-2,-1.0398551E-2,8.60663E-2,1.4656861E-1,2.2570674E-1,2.9284164E-1,3.6467907E-1,4.3041834E-1],"categories":[],"categories_nodes":[],"categories_segments":[],"categories_sizes":[],"default_left":[0,0,0,0,0,0,0,0,0,0,0,0,0,0,0,0,0,0,0,0,0,0,0,0,0,0,0,0,0,0,0,0,0,0,0,0,0,0,0,0,0],"id":7,"left_children":[1,3,5,7,9,11,13,-1,-1,15,17,19,21,23,25,-1,27,29,31,33,35,37,39,-1,-1,-1,-1,-1,-1,-1,-1,-1,-1,-1,-1,-1,-1,-1,-1,-1,-1],"loss_changes":[1.0155177E5,1.6587133E4,1.5875855E4,7.4897656E2,3.5548613E3,3.3825117E3,2.075664E3,0E0,0E0,2.7460742E2,3.6520898E2,2.726681E2,4.4365137E2,1.5149023E2,1.6261914E2,0E0,7.491211E0,2.6315186E1,3.7691284E1,2.274983E1,3.3740967E1,4.112256E1,4.9433594E0,0E0,0E0,0E0,0E0,0E0,0E0,0E0,0E0,0E0,0E0,0E0,0E0,0E0,0E0,0E0,0E0,0E0,0E0],"parents":[2147483647,0,0,1,1,2,2,3,3,4,4,5,5,6,6,9,9,10,10,11,11,12,12,13,13,14,14,16,16,17,17,18,18,19,19,20,20,21,21,22,22],"right_children":[2,4,6,8,10,12,14,-1,-1,16,18,20,22,24,26,-1,28,30,32,34,36,38,40,-1,-1,-1,-1,-1,-1,-1,-1,-1,-1,-1,-1,-1,-1,-1,-1,-1,-1],"split_conditions":[2.183E3,2.164E3,2.199E3,2.155E3,2.175E3,2.19E3,2.207E3,-1.180185E0,-8.616397E-1,2.171E3,2.179E3,2.186E3,2.194E3,2.202E3,2.212E3,-5.2645415E-1,2.174E3,2.177E3,3.99E1,2.182E3,2.188E3,2.192E3,2.196E3,5.5486965E-1,6.9036543E-1,8.492543E-1,1.1509714E0,-4.2745313E-1,-3.3536378E-1,-2.938332E-1,-2.2081247E-1,-1.3730274E-1,-3.911884E-2,5.7209473E-2,-1.0398551E-2,8.60663E-2,1.4656861E-1,2.2570674E-1,2.9284164E-1,3.6467907E-1,4.3041834E-1],"split_indices":[0,0,0,0,0,0,0,0,0,0,0,0,0,0,0,0,0,0,12,2,0,0,0,0,0,0,0,0,0,0,0,0,0,0,0,0,0,0,0,0,0],"split_type":[0,0,0,0,0,0,0,0,0,0,0,0,0,0,0,0,0,0,0,0,0,0,0,0,0,0,0,0,0,0,0,0,0,0,0,0,0,0,0,0,0],"sum_hessian":[1.363E3,6.03E2,7.6E2,1.13E2,4.9E2,5.29E2,2.31E2,5.5E1,5.8E1,2.86E2,2.04E2,1.93E2,3.36E2,1.71E2,6E1,1.33E2,1.53E2,9.9E1,1.05E2,8.6E1,1.07E2,1.77E2,1.59E2,7.4E1,9.7E1,3.5E1,2.5E1,1.27E2,2.6E1,5.3E1,4.6E1,9.3E1,1.2E1,1.4E1,7.2E1,4.8E1,5.9E1,5.7E1,1.2E2,9.7E1,6.2E1],"tree_param":{"num_deleted":"0","num_feature":"52","num_nodes":"41","size_leaf_vector":"1"}},{"base_weights":[1.7345625E-1,-9.071429E0,7.193604E0,-1.9270899E1,-6.67895E0,4.350094E0,1.3929497E1,-1.0481414E0,-7.0019656E-1,-8.861136E0,-3.689885E0,1.2775776E0,6.332695E0,1.1976382E1,1.8997137E1,-4.9623153E-1,-7.908727E0,-5.139585E0,-2.3670971E0,1.7701836E-1,2.6145775E0,5.2163057E0,7.4790916E0,5.6183E-1,6.9029236E-1,8.1703514E-1,1.1542131E0,-4.1884714E-1,-3.4606075E-1,-2.8282622E-1,-2.1372285E-1,-1.30552E-1,-3.4029137E-2,-1.8539747E-2,4.3309856E-2,7.3474124E-2,1.4030628E-1,2.1857667E-1,2.7844188E-1,3.2396656E-1,3.911327E-1],"categories":[],"categories_nodes":[],"categories_segments":[],"categories_sizes":[],"default_left":[0,0,0,0,0,0,0,0,0,0,0,0,0,0,0,0,0,0,0,0,0,0,0,0,0,0,0,0,0,0,0,0,0,0,0,0,0,0,0,0,0],"id":8,"left_children":[1,3,5,7,9,11,13,-1,-1,15,17,19,21,23,25,-1,27,29,31,33,35,37,39,-1,-1,-1,-1,-1,-1,-1,-1,-1,-1,-1,-1,-1,-1,-1,-1,-1,-1],"loss_changes":[8.8264984E4,1.4195277E4,1.4745117E4,6.9559766E2,3.0786309E3,3.3118174E3,2.0390547E3,0E0,0E0,2.0005273E2,3.7711597E2,3.1589838E2,3.8460938E2,7.224219E1,2.9593164E2,0E0,1.1375977E1,1.8754639E1,4.2655518E1,4.5248596E1,1.7152527E1,2.6581055E1,4.6152344E0,0E0,0E0,0E0,0E0,0E0,0E0,0E0,0E0,0E0,0E0,0E0,0E0,0E0,0E0,0E0,0E0,0E0,0E0],"parents":[2147483647,0,0,1,1,2,2,3,3,4,4,5,5,6,6,9,9,10,10,11,11,12,12,13,13,14,14,16,16,17,17,18,18,19,19,20,20,21,21,22,22],"right_children":[2,4,6,8,10,12,14,-1,-1,16,18,20,22,24,26,-1,28,30,32,34,36,38,40,-1,-1,-1,-1,-1,-1,-1,-1,-1,-1,-1,-1,-1,-1,-1,-1,-1,-1],"split_conditions":[2.183E3,2.165E3,2.199E3,2.159E3,2.175E3,2.19E3,2.207E3,-1.0481414E0,-7.0019656E-1,2.171E3,2.179E3,2.187E3,2.194E3,2.204E3,2.214E3,-4.9623153E-1,2.173E3,2.177E3,4.34E1,2.185E3,8.4E0,2.192E3,2.195E3,5.6183E-1,6.9029236E-1,8.1703514E-1,1.1542131E0,-4.1884714E-1,-3.4606075E-1,-2.8282622E-1,-2.1372285E-1,-1.30552E-1,-3.4029137E-2,-1.8539747E-2,4.3309856E-2,7.3474124E-2,1.4030628E-1,2.1857667E-1,2.7844188E-1,3.2396656E-1,3.911327E-1],"split_indices":[0,0,0,0,0,0,0,0,0,0,0,0,0,0,0,0,0,0,12,0,12,0,0,0,0,0,0,0,0,0,0,0,0,0,0,0,0,0,0,0,0],"split_type":[0,0,0,0,0,0,0,0,0,0,0,0,0,0,0,0,0,0,0,0,0,0,0,0,0,0,0,0,0,0,0,0,0,0,0,0,0,0,0,0,0],"sum_hessian":[1.358E3,5.86E2,7.72E2,1.1E2,4.76E2,5.44E2,2.28E2,8.1E1,2.9E1,2.74E2,2.02E2,2.14E2,3.3E2,1.67E2,6.1E1,1.25E2,1.49E2,9.5E1,1.07E2,1.18E2,9.6E1,1.7E2,1.6E2,1.24E2,4.3E1,4E1,2.1E1,9.6E1,5.3E1,5.6E1,3.9E1,9.3E1,1.4E1,6.6E1,5.2E1,1.5E1,8.1E1,5.4E1,1.16E2,4.6E1,1.14E2],"tree_param":{"num_deleted":"0","num_feature":"52","num_nodes":"41","size_leaf_vector":"1"}},{"base_weights":[-1.5165682E-1,-8.83312E0,6.8752885E0,-1.8101416E1,-6.346943E0,4.1126328E0,1.3201419E1,-2.020434E1,-6.7617553E-1,-8.1952715E0,-3.081202E0,1.166348E0,5.965413E0,1.1910995E1,1.0467191E0,-1.088297E0,-8.610883E-1,-4.5015785E-1,-6.881488E0,-4.0102434E0,-1.93945E0,-6.485403E-2,2.2385502E0,5.079498E0,6.929681E0,5.4453313E-1,7.0211184E-1,-3.6417744E-1,-2.5311574E-1,-9.088665E-2,-2.3230498E-1,-1.2230375E-1,1.199646E-2,8.319431E-2,-2.3148132E-2,6.886371E-2,1.521733E-1,2.4223387E-1,3.8837892E-1,3.3012193E-1,4.363318E-1],"categories":[],"categories_nodes":[],"categories_segments":[],"categories_sizes":[],"default_left":[0,0,0,0,0,0,0,0,0,0,0,0,0,0,0,0,0,0,0,0,0,0,0,0,0,0,0,0,0,0,0,0,0,0,0,0,0,0,0,0,0],"id":9,"left_children":[1,3,5,7,9,11,13,15,-1,17,19,21,23,25,-1,-1,-1,-1,27,29,31,33,35,37,39,-1,-1,-1,-1,-1,-1,-1,-1,-1,-1,-1,-1,-1,-1,-1,-1],"loss_changes":[8.223334E4,1.3779816E4,1.2966016E4,9.4939453E2,2.853998E3,2.831627E3,2.0058594E3,2.1046875E1,0E0,2.6070703E2,1.7679016E2,2.6680493E2,2.3730957E2,2.7329102E2,0E0,0E0,0E0,0E0,5.0898438E1,1.2399609E2,8.891708E1,6.615182E1,7.067981E1,6.967529E1,3.0588867E1,0E0,0E0,0E0,0E0,0E0,0E0,0E0,0E0,0E0,0E0,0E0,0E0,0E0,0E0,0E0,0E0],"parents":[2147483647,0,0,1,1,2,2,3,3,4,4,5,5,6,6,7,7,9,9,10,10,11,11,12,12,13,13,18,18,19,19,20,20,21,21,22,22,23,23,24,24],"right_children":[2,4,6,8,10,12,14,16,-1,18,20,22,24,26,-1,-1,-1,-1,28,30,32,34,36,38,40,-1,-1,-1,-1,-1,-1,-1,-1,-1,-1,-1,-1,-1,-1,-1,-1],"split_conditions":[2.183E3,2.167E3,2.199E3,2.159E3,2.176E3,2.19E3,2.212E3,2.154E3,-6.7617553E-1,2.172E3,2.18E3,2.186E3,2.194E3,2.205E3,1.0467191E0,-1.088297E0,-8.610883E-1,-4.5015785E-1,1E0,2.174E3,4.34E1,2.183E3,2.84E1,4.38E1,1.11E1,5.4453313E-1,7.0211184E-1,-3.6417744E-1,-2.5311574E-1,-9.088665E-2,-2.3230498E-1,-1.2230375E-1,1.199646E-2,8.319431E-2,-2.3148132E-2,6.886371E-2,1.521733E-1,2.4223387E-1,3.8837892E-1,3.3012193E-1,4.363318E-1],"split_indices":[1,1,1,1,1,1,1,1,0,1,1,1,1,1,0,0,0,0,18,3,12,2,12,12,10,0,0,0,0,0,0,0,0,0,0,0,0,0,0,0,0],"split_type":[0,0,0,0,0,0,0,0,0,0,0,0,0,0,0,0,0,0,0,0,0,0,0,0,0,0,0,0,0,0,0,0,0,0,0,0,0,0,0,0,0],"sum_hessian":[1.346E3,6.02E2,7.44E2,1.26E2,4.76E2,5.19E2,2.25E2,8.4E1,4.2E1,3.03E2,1.73E2,2.01E2,3.18E2,1.95E2,3E1,5.1E1,3.3E1,1.84E2,1.19E2,9.4E1,7.9E1,9.4E1,1.07E2,1.69E2,1.49E2,1.36E2,5.9E1,9.5E1,2.4E1,2.2E1,7.2E1,6.4E1,1.5E1,1.7E1,7.7E1,5.3E1,5.4E1,1.58E2,1.1E1,1.3E2,1.9E1],"tree_param":{"num_deleted":"0","num_feature":"52","num_nodes":"41","size_leaf_vector":"1"}},{"base_weights":[-1.367571E-1,-8.351452E0,6.588584E0,-1.7059254E1,-5.9323497E0,3.9548872E0,1.2549343E1,-1.0392562E0,-1.4424197E1,-7.882524E0,-3.3474987E0,1.2097836E0,5.699508E0,1.1181822E1,9.314386E-1,-7.960858E-1,-5.8401835E-1,-4.4034678E-1,-7.129027E0,-4.850239E0,-2.4501264E0,2.769154E-1,2.3120196E0,5.007502E0,3.5546538E-1,5.137347E-1,6.73093E-1,-3.7740406E-1,-3.1304476E-1,-2.519112E-1,-1.3112946E-1,-1.4727448E-1,-8.204557E-2,6.143848E-2,-1.5031682E-4,6.450521E-2,1.23945035E-1,1.9800693E-1,2.6681182E-1],"categories":[],"categories_nodes":[],"categories_segments":[],"categories_sizes":[],"default_left":[0,0,0,0,0,0,0,0,0,0,0,0,0,0,0,0,0,0,0,0,0,0,0,0,0,0,0,0,0,0,0,0,0,0,0,0,0,0,0],"id":10,"left_children":[1,3,5,7,9,11,13,-1,15,17,19,21,23,25,-1,-1,-1,-1,27,29,31,33,35,37,-1,-1,-1,-1,-1,-1,-1,-1,-1,-1,-1,-1,-1,-1,-1],"loss_changes":[7.425124E4,1.264316E4,1.1551809E4,9.8633594E2,2.3680469E3,2.4547349E3,1.6706016E3,0E0,1.4274219E2,1.2528125E2,2.6591064E2,2.060362E2,2.7073535E2,2.4845508E2,0E0,0E0,0E0,0E0,8.766602E0,1.8613037E1,4.767871E1,2.9312607E1,1.2491516E1,5.2549316E1,0E0,0E0,0E0,0E0,0E0,0E0,0E0,0E0,0E0,0E0,0E0,0E0,0E0,0E0,0E0],"parents":[2147483647,0,0,1,1,2,2,3,3,4,4,5,5,6,6,8,8,9,9,10,10,11,11,12,12,13,13,18,18,19,19,20,20,21,21,22,22,23,23],"right_children":[2,4,6,8,10,12,14,-1,16,18,20,22,24,26,-1,-1,-1,-1,28,30,32,34,36,38,-1,-1,-1,-1,-1,-1,-1,-1,-1,-1,-1,-1,-1,-1,-1],"split_conditions":[2.183E3,2.167E3,2.199E3,2.154E3,2.175E3,2.19E3,2.21E3,-1.0392562E0,2.162E3,2.171E3,2.178E3,2.187E3,2.195E3,2.205E3,9.314386E-1,-7.960858E-1,-5.8401835E-1,-4.4034678E-1,2.173E3,9.5E0,2.181E3,2.183E3,8.4E0,2.192E3,3.5546538E-1,5.137347E-1,6.73093E-1,-3.7740406E-1,-3.1304476E-1,-2.519112E-1,-1.3112946E-1,-1.4727448E-1,-8.204557E-2,6.143848E-2,-1.5031682E-4,6.450521E-2,1.23945035E-1,1.9800693E-1,2.6681182E-1],"split_indices":[0,0,0,0,0,0,0,0,0,0,0,0,0,0,0,0,0,0,0,34,0,2,12,0,0,0,0,0,0,0,0,0,0,0,0,0,0,0,0],"split_type":[0,0,0,0,0,0,0,0,0,0,0,0,0,0,0,0,0,0,0,0,0,0,0,0,0,0,0,0,0,0,0,0,0,0,0,0,0,0,0],"sum_hessian":[1.342E3,6.04E2,7.38E2,1.3E2,4.74E2,5.13E2,2.25E2,5.1E1,7.9E1,2.69E2,2.05E2,2E2,3.13E2,1.86E2,3.9E1,4.8E1,3.1E1,1.16E2,1.53E2,7.5E1,1.3E2,1.09E2,9.1E1,2.13E2,1E2,1.37E2,4.9E1,9.8E1,5.5E1,6.8E1,7E0,7.9E1,5.1E1,2.4E1,8.5E1,1.4E1,7.7E1,5.4E1,1.59E2],"tree_param":{"num_deleted":"0","num_feature":"52","num_nodes":"39","size_leaf_vector":"1"}},{"base_weights":[-6.4852335E-2,-7.804707E0,6.123006E0,-1.6018791E1,-5.683588E0,3.564161E0,1.1288041E1,-9.1719073E-1,-6.245737E-1,-7.292963E0,-2.8370032E0,1.216644E0,5.1642423E0,9.604627E0,1.5540358E1,-7.8295097E0,-2.865897E-1,-3.7645342E0,-1.7873622E0,1.6455892E-1,2.0155416E0,4.1335115E0,5.7915864E0,4.0642568E-1,5.241748E-1,6.776325E-1,9.719163E-1,-4.3427595E-1,-3.697607E-1,-1.9937685E-1,-8.799605E-2,-9.987845E-2,-2.968227E-2,-1.0480753E-2,4.4172917E-2,6.8867676E-2,1.2275785E-1,1.8119381E-1,2.2786336E-1,2.632946E-1,3.21924E-1],"categories":[],"categories_nodes":[],"categories_segments":[],"categories_sizes":[],"default_left":[0,0,0,0,0,0,0,0,0,0,0,0,0,0,0,0,0,0,0,0,0,0,0,0,0,0,0,0,0,0,0,0,0,0,0,0,0,0,0,0,0],"id":11,"left_children":[1,3,5,7,9,11,13,-1,-1,15,17,19,21,23,25,27,-1,29,31,33,35,37,39,-1,-1,-1,-1,-1,-1,-1,-1,-1,-1,-1,-1,-1,-1,-1,-1,-1,-1],"loss_changes":[6.489508E4,1.0397629E4,9.911811E3,7.795957E2,2.178296E3,1.8906074E3,1.6331875E3,0E0,0E0,2.1144043E2,1.636471E2,1.7281302E2,1.7004688E2,1.495957E2,2.7117188E2,1.941504E1,0E0,3.4109497E1,1.989206E1,2.4394594E1,2.9443604E1,8.752441E0,2.8668457E1,0E0,0E0,0E0,0E0,0E0,0E0,0E0,0E0,0E0,0E0,0E0,0E0,0E0,0E0,0E0,0E0,0E0,0E0],"parents":[2147483647,0,0,1,1,2,2,3,3,4,4,5,5,6,6,9,9,10,10,11,11,12,12,13,13,14,14,15,15,17,17,18,18,19,19,20,20,21,21,22,22],"right_children":[2,4,6,8,10,12,14,-1,-1,16,18,20,22,24,26,28,-1,30,32,34,36,38,40,-1,-1,-1,-1,-1,-1,-1,-1,-1,-1,-1,-1,-1,-1,-1,-1,-1,-1],"split_conditions":[2.183E3,2.167E3,2.197E3,2.158E3,2.176E3,2.19E3,2.206E3,-9.1719073E-1,-6.245737E-1,2.173E3,2.18E3,2.186E3,2.193E3,2.201E3,2.214E3,2.17E3,-2.865897E-1,7E-1,2.36E1,1.7E0,2.188E3,2.192E3,2.195E3,4.0642568E-1,5.241748E-1,6.776325E-1,9.719163E-1,-4.3427595E-1,-3.697607E-1,-1.9937685E-1,-8.799605E-2,-9.987845E-2,-2.968227E-2,-1.0480753E-2,4.4172917E-2,6.8867676E-2,1.2275785E-1,1.8119381E-1,2.2786336E-1,2.632946E-1,3.21924E-1],"split_indices":[0,0,0,0,0,0,0,0,0,0,0,0,0,0,0,0,0,13,11,22,0,0,0,0,0,0,0,0,0,0,0,0,0,0,0,0,0,0,0,0,0],"split_type":[0,0,0,0,0,0,0,0,0,0,0,0,0,0,0,0,0,0,0,0,0,0,0,0,0,0,0,0,0,0,0,0,0,0,0,0,0,0,0,0,0],"sum_hessian":[1.353E3,6.01E2,7.52E2,1.22E2,4.79E2,5.04E2,2.48E2,7.1E1,5.1E1,3.05E2,1.74E2,2.05E2,2.99E2,1.8E2,6.8E1,2.24E2,8.1E1,9.1E1,8.3E1,8.9E1,1.16E2,1.16E2,1.83E2,7.1E1,1.09E2,4.8E1,2E1,6.9E1,1.55E2,8.1E1,1E1,7E1,1.3E1,5.9E1,3E1,4.9E1,6.7E1,5.7E1,5.9E1,1.06E2,7.7E1],"tree_param":{"num_deleted":"0","num_feature":"52","num_nodes":"41","size_leaf_vector":"1"}},{"base_weights":[-9.457122E-2,-7.1598377E0,5.880148E0,-1.5265013E1,-5.1191087E0,3.752891E0,1.10117655E1,-1.6875107E1,-5.253336E-1,-6.866249E0,-2.5207374E0,1.2302272E0,5.1819863E0,9.625721E0,1.53654785E1,-9.312874E-1,-7.378808E-1,-7.3865595E0,-5.3939857E0,-3.6855993E0,-1.5037383E0,2.6437512E-1,2.124392E0,4.404863E0,5.927893E0,4.2243123E-1,5.2563804E-1,6.9110423E-1,9.550527E-1,-3.9389452E-1,-3.3689186E-1,-2.8207284E-1,-1.2153168E-1,-8.137452E-2,-2.0960198E-1,-1.0671189E-1,-2.2356307E-2,1.06300466E-1,-4.8510428E-3,8.098204E-2,1.456388E-1,2.0873168E-1,3.3966815E-1,3.3299932E-1,2.695402E-1],"categories":[],"categories_nodes":[],"categories_segments":[],"categories_sizes":[],"default_left":[0,0,0,0,0,0,0,0,0,0,0,0,0,0,0,0,0,0,0,0,0,0,0,0,0,0,0,0,0,0,0,0,0,0,0,0,0,0,0,0,0,0,0,0,0],"id":12,"left_children":[1,3,5,7,9,11,13,15,-1,17,19,21,23,25,27,-1,-1,29,31,33,35,37,39,41,43,-1,-1,-1,-1,-1,-1,-1,-1,-1,-1,-1,-1,-1,-1,-1,-1,-1,-1,-1,-1],"loss_changes":[5.702963E4,1.0160404E4,7.949383E3,7.72709E2,2.2343926E3,1.864686E3,1.1434688E3,6.246289E1,0E0,1.8690332E2,2.325752E2,1.6266464E2,1.6575586E2,8.346289E1,2.4256836E1,0E0,0E0,1.5768555E1,4.5688477E1,9.0112305E1,7.166084E1,6.210267E1,3.4280243E1,6.2924316E1,2.9368652E1,0E0,0E0,0E0,0E0,0E0,0E0,0E0,0E0,0E0,0E0,0E0,0E0,0E0,0E0,0E0,0E0,0E0,0E0,0E0,0E0],"parents":[2147483647,0,0,1,1,2,2,3,3,4,4,5,5,6,6,7,7,9,9,10,10,11,11,12,12,13,13,14,14,17,17,18,18,19,19,20,20,21,21,22,22,23,23,24,24],"right_children":[2,4,6,8,10,12,14,16,-1,18,20,22,24,26,28,-1,-1,30,32,34,36,38,40,42,44,-1,-1,-1,-1,-1,-1,-1,-1,-1,-1,-1,-1,-1,-1,-1,-1,-1,-1,-1,-1],"split_conditions":[2.184E3,2.167E3,2.199E3,2.16E3,2.176E3,2.19E3,2.207E3,2.153E3,-5.253336E-1,2.173E3,2.18E3,2.187E3,2.194E3,2.202E3,2.216E3,-9.312874E-1,-7.378808E-1,2.171E3,8.1E0,2.174E3,1.74E1,2.181E3,7E-1,4.38E1,2.194E3,4.2243123E-1,5.2563804E-1,6.9110423E-1,9.550527E-1,-3.9389452E-1,-3.3689186E-1,-2.8207284E-1,-1.2153168E-1,-8.137452E-2,-2.0960198E-1,-1.0671189E-1,-2.2356307E-2,1.06300466E-1,-4.8510428E-3,8.098204E-2,1.456388E-1,2.0873168E-1,3.3966815E-1,3.3299932E-1,2.695402E-1],"split_indices":[1,1,1,1,1,1,1,1,0,1,1,1,1,1,1,0,0,1,4,3,11,3,18,12,3,0,0,0,0,0,0,0,0,0,0,0,0,0,0,0,0,0,0,0,0],"split_type":[0,0,0,0,0,0,0,0,0,0,0,0,0,0,0,0,0,0,0,0,0,0,0,0,0,0,0,0,0,0,0,0,0,0,0,0,0,0,0,0,0,0,0,0,0],"sum_hessian":[1.349E3,6.18E2,7.31E2,1.23E2,4.95E2,5.18E2,2.13E2,9E1,3.3E1,2.95E2,2E2,1.88E2,3.3E2,1.64E2,4.9E1,4.5E1,4.5E1,2.15E2,8E1,9.2E1,1.08E2,9.1E1,9.7E1,1.65E2,1.65E2,7.5E1,8.9E1,3.8E1,1.1E1,1.16E2,9.9E1,7.3E1,7E0,1.9E1,7.3E1,6.7E1,4.1E1,1.4E1,7.7E1,6.1E1,3.6E1,1.53E2,1.2E1,6.5E1,1E2],"tree_param":{"num_deleted":"0","num_feature":"52","num_nodes":"45","size_leaf_vector":"1"}},{"base_weights":[-1.5525549E-2,-6.8248057E0,5.9227123E0,-1.4820036E1,-4.9485874E0,3.7903588E0,1.1370902E1,-8.9851E-1,-1.2690335E1,-6.6170964E0,-2.351583E0,1.156768E0,5.0739408E0,1.0124043E1,8.3624965E-1,-6.8629974E-1,-4.9588218E-1,-7.1567545E0,-5.1094317E0,-3.3824313E0,-1.3763497E0,3.946931E-1,1.9410961E0,4.020535E0,6.0247874E0,4.5436892E-1,5.966727E-1,-3.9671433E-1,-3.3456278E-1,-2.0682637E-1,-2.6896173E-1,-1.8741952E-1,-1.21398926E-1,-7.8385636E-2,5.6612454E-3,1.1163086E-2,6.1276853E-2,5.0750054E-2,1.0788467E-1,1.7015621E-1,2.1431132E-1,2.6741967E-1,3.370854E-1],"categories":[],"categories_nodes":[],"categories_segments":[],"categories_sizes":[],"default_left":[0,0,0,0,0,0,0,0,0,0,0,0,0,0,0,0,0,0,0,0,0,0,0,0,0,0,0,0,0,0,0,0,0,0,0,0,0,0,0,0,0,0,0],"id":13,"left_children":[1,3,5,7,9,11,13,-1,15,17,19,21,23,25,-1,-1,-1,27,29,31,33,35,37,39,41,-1,-1,-1,-1,-1,-1,-1,-1,-1,-1,-1,-1,-1,-1,-1,-1,-1,-1],"loss_changes":[5.5032195E4,9.437162E3,8.402799E3,5.770215E2,2.216E3,1.7654751E3,1.1925371E3,0E0,7.923828E1,2.1809668E2,1.994242E2,1.02638855E2,3.283496E2,2.066836E2,0E0,0E0,0E0,2.943164E1,3.2299805E-1,2.5129395E1,3.039273E1,1.2402896E1,1.4860077E1,1.3300293E1,5.2683105E1,0E0,0E0,0E0,0E0,0E0,0E0,0E0,0E0,0E0,0E0,0E0,0E0,0E0,0E0,0E0,0E0,0E0,0E0],"parents":[2147483647,0,0,1,1,2,2,3,3,4,4,5,5,6,6,8,8,9,9,10,10,11,11,12,12,13,13,17,17,18,18,19,19,20,20,21,21,22,22,23,23,24,24],"right_children":[2,4,6,8,10,12,14,-1,16,18,20,22,24,26,-1,-1,-1,28,30,32,34,36,38,40,42,-1,-1,-1,-1,-1,-1,-1,-1,-1,-1,-1,-1,-1,-1,-1,-1,-1,-1],"split_conditions":[2.184E3,2.167E3,2.2E3,2.154E3,2.176E3,2.19E3,2.211E3,-8.9851E-1,2.161E3,2.173E3,2.18E3,2.187E3,2.194E3,2.205E3,8.3624965E-1,-6.8629974E-1,-4.9588218E-1,2.17E3,2.173E3,2.8E0,3.05E1,2.87E0,9.9E0,2.192E3,2.196E3,4.5436892E-1,5.966727E-1,-3.9671433E-1,-3.3456278E-1,-2.0682637E-1,-2.6896173E-1,-1.8741952E-1,-1.21398926E-1,-7.8385636E-2,5.6612454E-3,1.1163086E-2,6.1276853E-2,5.0750054E-2,1.0788467E-1,1.7015621E-1,2.1431132E-1,2.6741967E-1,3.370854E-1],"split_indices":[0,0,0,0,0,0,0,0,0,0,0,0,0,0,0,0,0,0,2,22,11,13,12,0,0,0,0,0,0,0,0,0,0,0,0,0,0,0,0,0,0,0,0],"split_type":[0,0,0,0,0,0,0,0,0,0,0,0,0,0,0,0,0,0,0,0,0,0,0,0,0,0,0,0,0,0,0,0,0,0,0,0,0,0,0,0,0,0,0],"sum_hessian":[1.359E3,6.33E2,7.26E2,1.19E2,5.14E2,5.23E2,2.03E2,4.5E1,7.4E1,3.12E2,2.02E2,1.72E2,3.51E2,1.67E2,3.6E1,5.1E1,2.3E1,2.27E2,8.5E1,9.7E1,1.05E2,8.8E1,8.4E1,1.69E2,1.82E2,1.1E2,5.7E1,7.9E1,1.48E2,2.2E1,6.3E1,6.8E1,2.9E1,9.3E1,1.2E1,7.4E1,1.4E1,1.7E1,6.7E1,5.5E1,1.14E2,9.8E1,8.4E1],"tree_param":{"num_deleted":"0","num_feature":"52","num_nodes":"43","size_leaf_vector":"1"}},{"base_weights":[6.725085E-2,-6.8778887E0,5.470976E0,-1.468585E1,-5.0340195E0,3.4128397E0,1.0886861E1,-8.8929665E-1,-1.2853565E1,-6.7500806E0,-2.9563773E0,9.8496705E-1,4.7865195E0,9.584006E0,8.0596256E-1,-6.764998E-1,-4.8948255E-1,-3.9134777E-1,-6.2308707E0,-4.241723E0,-1.9842064E0,3.9090887E-3,1.7100629E0,4.0847526E0,5.9772167E0,4.299313E-1,5.615401E-1,-3.1681946E-1,-2.3203532E-1,-2.1932791E-1,-1.2012668E-1,-1.21143244E-1,-6.772303E-2,-1.5894644E-2,2.9255135E-2,6.138423E-2,1.03763774E-1,1.7809032E-1,2.2879486E-1,2.7263817E-1,3.2974672E-1],"categories":[],"categories_nodes":[],"categories_segments":[],"categories_sizes":[],"default_left":[0,0,0,0,0,0,0,0,0,0,0,0,0,0,0,0,0,0,0,0,0,0,0,0,0,0,0,0,0,0,0,0,0,0,0,0,0,0,0,0,0],"id":14,"left_children":[1,3,5,7,9,11,13,-1,15,17,19,21,23,25,-1,-1,-1,-1,27,29,31,33,35,37,39,-1,-1,-1,-1,-1,-1,-1,-1,-1,-1,-1,-1,-1,-1,-1,-1],"loss_changes":[5.0514973E4,8.405824E3,8.400846E3,4.0757227E2,1.6842871E3,1.8296011E3,1.263457E3,0E0,2.091211E1,9.716211E1,2.6399097E2,1.4226553E2,2.6887744E2,1.7766895E2,0E0,0E0,0E0,0E0,9.6533203E-1,1.4234375E1,3.1525024E1,1.6270517E1,1.7711823E1,4.123413E1,5.506836E0,0E0,0E0,0E0,0E0,0E0,0E0,0E0,0E0,0E0,0E0,0E0,0E0,0E0,0E0,0E0,0E0],"parents":[2147483647,0,0,1,1,2,2,3,3,4,4,5,5,6,6,8,8,9,9,10,10,11,11,12,12,13,13,18,18,19,19,20,20,21,21,22,22,23,23,24,24],"right_children":[2,4,6,8,10,12,14,-1,16,18,20,22,24,26,-1,-1,-1,-1,28,30,32,34,36,38,40,-1,-1,-1,-1,-1,-1,-1,-1,-1,-1,-1,-1,-1,-1,-1,-1],"split_conditions":[2.183E3,2.165E3,2.2E3,2.152E3,2.174E3,2.19E3,2.211E3,-8.8929665E-1,2.16E3,2.17E3,2.178E3,2.186E3,2.195E3,2.205E3,8.0596256E-1,-6.764998E-1,-4.8948255E-1,-3.9134777E-1,1.01E1,9.5E0,2.181E3,1.6E0,2.188E3,2.193E3,2.197E3,4.299313E-1,5.615401E-1,-3.1681946E-1,-2.3203532E-1,-2.1932791E-1,-1.2012668E-1,-1.21143244E-1,-6.772303E-2,-1.5894644E-2,2.9255135E-2,6.138423E-2,1.03763774E-1,1.7809032E-1,2.2879486E-1,2.7263817E-1,3.2974672E-1],"split_indices":[0,0,0,0,0,0,0,0,0,0,0,0,0,0,0,0,0,0,34,34,0,24,0,0,0,0,0,0,0,0,0,0,0,0,0,0,0,0,0,0,0],"split_type":[0,0,0,0,0,0,0,0,0,0,0,0,0,0,0,0,0,0,0,0,0,0,0,0,0,0,0,0,0,0,0,0,0,0,0,0,0,0,0,0,0],"sum_hessian":[1.344E3,5.88E2,7.56E2,1.11E2,4.77E2,5.49E2,2.07E2,3.8E1,7.3E1,2.6E2,2.17E2,1.99E2,3.5E2,1.68E2,3.9E1,5.7E1,1.6E1,8E1,1.8E2,9.2E1,1.25E2,8.5E1,1.14E2,2.23E2,1.27E2,1.09E2,5.9E1,1.66E2,1.4E1,8.4E1,8E0,7.2E1,5.3E1,5.5E1,3E1,5.1E1,6.3E1,1.12E2,1.11E2,7.4E1,5.3E1],"tree_param":{"num_deleted":"0","num_feature":"52","num_nodes":"41","size_leaf_vector":"1"}},{"base_weights":[-2.7247237E-2,-6.7308083E0,5.0327287E0,-1.415828E1,-5.068007E0,2.748587E0,9.427526E0,-8.1511277E-1,-6.1035645E-1,-6.3685102E0,-2.7293658E0,7.688154E-1,4.2274337E0,8.097039E0,1.3674659E1,-7.6129904E0,-5.7974467E0,-3.8410912E0,-1.9069608E0,3.2127026E-2,1.8014314E0,3.5654714E0,2.5119397E-1,3.288276E-1,8.888093E0,5.921154E-1,8.4652406E-1,-4.4453532E-1,-3.5369307E-1,-3.018182E-1,-2.4844563E-1,-1.2856087E-1,-2.0762192E-1,-5.8262467E-2,-1.13851525E-1,-3.0891737E-2,1.7467847E-2,7.44999E-2,1.2133074E-1,1.5159167E-1,1.91443E-1,4.100419E-1,4.9094072E-1],"categories":[],"categories_nodes":[],"categories_segments":[],"categories_sizes":[],"default_left":[0,0,0,0,0,0,0,0,0,0,0,0,0,0,0,0,0,0,0,0,0,0,0,0,0,0,0,0,0,0,0,0,0,0,0,0,0,0,0,0,0,0,0],"id":15,"left_children":[1,3,5,7,9,11,13,-1,-1,15,17,19,21,23,25,27,29,31,33,35,37,39,-1,-1,41,-1,-1,-1,-1,-1,-1,-1,-1,-1,-1,-1,-1,-1,-1,-1,-1,-1,-1],"loss_changes":[4.63684E4,7.190289E3,7.793953E3,2.4860156E2,1.4485791E3,1.5016279E3,1.392377E3,0E0,0E0,1.7546289E2,1.5176135E2,1.6806041E2,1.3708936E2,1.8811914E2,1.6938379E2,1.8603516E0,1.2763184E1,1.8185303E1,2.5344147E1,2.7020195E1,1.4297058E1,1.1442383E1,0E0,0E0,3.9091797E0,0E0,0E0,0E0,0E0,0E0,0E0,0E0,0E0,0E0,0E0,0E0,0E0,0E0,0E0,0E0,0E0,0E0,0E0],"parents":[2147483647,0,0,1,1,2,2,3,3,4,4,5,5,6,6,9,9,10,10,11,11,12,12,13,13,14,14,15,15,16,16,17,17,18,18,19,19,20,20,21,21,24,24],"right_children":[2,4,6,8,10,12,14,-1,-1,16,18,20,22,24,26,28,30,32,34,36,38,40,-1,-1,42,-1,-1,-1,-1,-1,-1,-1,-1,-1,-1,-1,-1,-1,-1,-1,-1,-1,-1],"split_conditions":[2.182E3,2.163E3,2.197E3,2.154E3,2.175E3,2.19E3,2.207E3,-8.1511277E-1,-6.1035645E-1,2.17E3,2.178E3,2.187E3,2.194E3,2.201E3,2.216E3,2.167E3,2.173E3,2.173E3,2.18E3,2.184E3,2E0,2.192E3,2.5119397E-1,3.288276E-1,2.204E3,5.921154E-1,8.4652406E-1,-4.4453532E-1,-3.5369307E-1,-3.018182E-1,-2.4844563E-1,-1.2856087E-1,-2.0762192E-1,-5.8262467E-2,-1.13851525E-1,-3.0891737E-2,1.7467847E-2,7.44999E-2,1.2133074E-1,1.5159167E-1,1.91443E-1,4.100419E-1,4.9094072E-1],"split_indices":[0,0,0,0,0,0,0,0,0,0,0,0,0,0,0,0,0,3,3,0,36,0,0,0,0,0,0,0,0,0,0,0,0,0,0,0,0,0,0,0,0,0,0],"split_type":[0,0,0,0,0,0,0,0,0,0,0,0,0,0,0,0,0,0,0,0,0,0,0,0,0,0,0,0,0,0,0,0,0,0,0,0,0,0,0,0,0,0,0],"sum_hessian":[1.365E3,5.87E2,7.78E2,1.06E2,4.81E2,5.13E2,2.65E2,4.7E1,5.9E1,3.08E2,1.73E2,2.2E2,2.93E2,2.04E2,6.1E1,9.3E1,2.15E2,7.2E1,1.01E2,1.29E2,9.1E1,1.63E2,1.3E2,7.3E1,1.31E2,4.2E1,1.9E1,2.3E1,7E1,1.62E2,5.3E1,1.6E1,5.6E1,3.5E1,6.6E1,4.2E1,8.7E1,6.3E1,2.8E1,5.8E1,1.05E2,8.1E1,5E1],"tree_param":{"num_deleted":"0","num_feature":"52","num_nodes":"43","size_leaf_vector":"1"}},{"base_weights":[-1.1600866E-1,-5.9583616E0,4.9951954E0,-1.2745269E1,-4.1989417E0,3.2020237E0,9.79735E0,-7.6331294E-1,-1.0786339E1,-5.713912E0,-2.0374017E0,1.2279428E0,4.4527545E0,8.535165E0,1.3700185E1,-5.899252E-1,-4.314911E-1,-6.1181607E0,-4.5362964E0,-2.9574962E0,-1.2676078E0,5.1647294E-1,2.0625882E0,3.7622492E0,5.4255314E0,3.8550502E-1,4.8554775E-1,5.703384E-1,7.841803E-1,-3.2580113E-1,-2.776479E-1,-2.3081021E-1,-1.21520996E-1,-1.589096E-1,-7.916423E-2,-7.338789E-2,-1.7740145E-2,1.438181E-3,3.7834637E-2,8.66221E-2,1.2971227E-1,1.6195716E-1,2.0630307E-1,2.4770217E-1,3.0232802E-1],"categories":[],"categories_nodes":[],"categories_segments":[],"categories_sizes":[],"default_left":[0,0,0,0,0,0,0,0,0,0,0,0,0,0,0,0,0,0,0,0,0,0,0,0,0,0,0,0,0,0,0,0,0,0,0,0,0,0,0,0,0,0,0,0,0],"id":16,"left_children":[1,3,5,7,9,11,13,-1,15,17,19,21,23,25,27,-1,-1,29,31,33,35,37,39,41,43,-1,-1,-1,-1,-1,-1,-1,-1,-1,-1,-1,-1,-1,-1,-1,-1,-1,-1,-1,-1],"loss_changes":[4.0253145E4,7.457385E3,6.160002E3,4.7239258E2,1.6289678E3,1.2907803E3,8.4365625E2,0E0,6.407129E1,1.1220508E2,1.4357391E2,1.20668884E2,1.9520605E2,7.064258E1,3.034668E1,0E0,0E0,1.2389648E1,2.0743408E0,2.3476624E1,2.0489471E1,1.3099869E1,1.2004944E1,2.2984863E1,8.402832E0,0E0,0E0,0E0,0E0,0E0,0E0,0E0,0E0,0E0,0E0,0E0,0E0,0E0,0E0,0E0,0E0,0E0,0E0,0E0,0E0],"parents":[2147483647,0,0,1,1,2,2,3,3,4,4,5,5,6,6,8,8,9,9,10,10,11,11,12,12,13,13,14,14,17,17,18,18,19,19,20,20,21,21,22,22,23,23,24,24],"right_children":[2,4,6,8,10,12,14,-1,16,18,20,22,24,26,28,-1,-1,30,32,34,36,38,40,42,44,-1,-1,-1,-1,-1,-1,-1,-1,-1,-1,-1,-1,-1,-1,-1,-1,-1,-1,-1,-1],"split_conditions":[2.184E3,2.167E3,2.2E3,2.154E3,2.176E3,2.191E3,2.21E3,-7.6331294E-1,2.162E3,2.173E3,2.18E3,2.188E3,2.195E3,2.204E3,2.215E3,-5.899252E-1,-4.314911E-1,2.171E3,1.23E1,4.2E-1,4.34E1,2.185E3,7E-1,2.193E3,2.197E3,3.8550502E-1,4.8554775E-1,5.703384E-1,7.841803E-1,-3.2580113E-1,-2.776479E-1,-2.3081021E-1,-1.21520996E-1,-1.589096E-1,-7.916423E-2,-7.338789E-2,-1.7740145E-2,1.438181E-3,3.7834637E-2,8.66221E-2,1.2971227E-1,1.6195716E-1,2.0630307E-1,2.4770217E-1,3.0232802E-1],"split_indices":[0,0,0,0,0,0,0,0,0,0,0,0,0,0,0,0,0,0,16,13,12,0,24,0,0,0,0,0,0,0,0,0,0,0,0,0,0,0,0,0,0,0,0,0,0],"split_type":[0,0,0,0,0,0,0,0,0,0,0,0,0,0,0,0,0,0,0,0,0,0,0,0,0,0,0,0,0,0,0,0,0,0,0,0,0,0,0,0,0,0,0,0,0],"sum_hessian":[1.346E3,6.28E2,7.18E2,1.28E2,5E2,5.24E2,1.94E2,5.3E1,7.5E1,2.93E2,2.07E2,2.04E2,3.2E2,1.49E2,4.5E1,4.8E1,2.7E1,2.15E2,7.8E1,9.3E1,1.14E2,1.11E2,9.3E1,1.9E2,1.3E2,9.2E1,5.7E1,2.4E1,2.1E1,1.2E2,9.5E1,7.4E1,4E0,7.9E1,1.4E1,9.3E1,2.1E1,3.7E1,7.4E1,6E1,3.3E1,8.2E1,1.08E2,7.9E1,5.1E1],"tree_param":{"num_deleted":"0","num_feature":"52","num_nodes":"45","size_leaf_vector":"1"}},{"base_weights":[-2.1660468E-2,-5.9022946E0,4.5849943E0,-1.2007767E1,-4.2125893E0,2.7975705E0,8.825617E0,-7.3558867E-1,-1.0144374E1,-5.7319355E0,-2.4728158E0,8.3413625E-1,4.047755E0,7.909878E0,6.855171E-1,-5.525057E-1,-4.1483316E-1,-3.1326804E-1,-2.6038456E-1,-3.6133924E0,-1.664164E0,-7.251228E-3,1.5490074E0,3.2743733E0,4.7296247E0,7.204737E0,4.7405574E-1,-1.9766545E-1,-1.4008911E-1,-1.04576826E-1,-5.3103637E-2,-1.7574385E-2,2.9290093E-2,8.193781E-2,-2.2077288E-3,1.371542E-1,1.7531519E-1,2.1837735E-1,2.6333657E-1,2.8634033E-1,3.7274376E-1],"categories":[],"categories_nodes":[],"categories_segments":[],"categories_sizes":[],"default_left":[0,0,0,0,0,0,0,0,0,0,0,0,0,0,0,0,0,0,0,0,0,0,0,0,0,0,0,0,0,0,0,0,0,0,0,0,0,0,0,0,0],"id":17,"left_children":[1,3,5,7,9,11,13,-1,15,17,19,21,23,25,-1,-1,-1,-1,-1,27,29,31,33,35,37,39,-1,-1,-1,-1,-1,-1,-1,-1,-1,-1,-1,-1,-1,-1,-1],"loss_changes":[3.6571543E4,6.0670703E3,5.71321E3,4.9570312E2,1.2176123E3,1.3074092E3,8.9353516E2,0E0,4.053076E1,3.672412E1,1.959768E2,1.2572131E2,1.5642822E2,1.4330762E2,0E0,0E0,0E0,0E0,0E0,1.375293E1,3.1229858E1,2.00085E1,1.6229584E1,9.604492E0,1.0252197E1,7.5844727E0,0E0,0E0,0E0,0E0,0E0,0E0,0E0,0E0,0E0,0E0,0E0,0E0,0E0,0E0,0E0],"parents":[2147483647,0,0,1,1,2,2,3,3,4,4,5,5,6,6,8,8,9,9,10,10,11,11,12,12,13,13,19,19,20,20,21,21,22,22,23,23,24,24,25,25],"right_children":[2,4,6,8,10,12,14,-1,16,18,20,22,24,26,-1,-1,-1,-1,-1,28,30,32,34,36,38,40,-1,-1,-1,-1,-1,-1,-1,-1,-1,-1,-1,-1,-1,-1,-1],"split_conditions":[2.183E3,2.167E3,2.199E3,2.154E3,2.174E3,2.19E3,2.211E3,-7.3558867E-1,2.162E3,2.171E3,2.178E3,2.186E3,2.194E3,2.205E3,6.855171E-1,-5.525057E-1,-4.1483316E-1,-3.1326804E-1,-2.6038456E-1,3.1E0,2.181E3,1.7E0,2.195E3,2.192E3,2.196E3,2.2E3,4.7405574E-1,-1.9766545E-1,-1.4008911E-1,-1.04576826E-1,-5.3103637E-2,-1.7574385E-2,2.9290093E-2,8.193781E-2,-2.2077288E-3,1.371542E-1,1.7531519E-1,2.1837735E-1,2.6333657E-1,2.8634033E-1,3.7274376E-1],"split_indices":[0,0,0,0,0,0,0,0,0,0,0,0,0,0,0,0,0,0,0,34,0,22,3,0,0,0,0,0,0,0,0,0,0,0,0,0,0,0,0,0,0],"split_type":[0,0,0,0,0,0,0,0,0,0,0,0,0,0,0,0,0,0,0,0,0,0,0,0,0,0,0,0,0,0,0,0,0,0,0,0,0,0,0,0,0],"sum_hessian":[1.348E3,5.92E2,7.56E2,1.27E2,4.65E2,5.33E2,2.23E2,4.9E1,7.8E1,2.47E2,2.18E2,2.08E2,3.25E2,1.9E2,3.3E1,4.9E1,2.9E1,1.17E2,1.3E2,8.9E1,1.29E2,9.6E1,1.12E2,1.55E2,1.7E2,1.35E2,5.5E1,6E1,2.9E1,7.4E1,5.5E1,6.1E1,3.5E1,1.06E2,6E0,5.1E1,1.04E2,1.07E2,6.3E1,2.3E1,1.12E2],"tree_param":{"num_deleted":"0","num_feature":"52","num_nodes":"41","size_leaf_vector":"1"}},{"base_weights":[2.4092264E-2,-5.289107E0,4.672205E0,-1.1596501E1,-3.8640847E0,2.9241648E0,8.449533E0,-7.338813E-1,-1.0120394E1,-5.2035823E0,-1.8555666E0,9.9356854E-1,3.8609047E0,7.2443027E0,1.1567623E1,-5.4075456E-1,-3.8512963E-1,-5.7754817E0,-4.3229523E0,-2.774331E0,-1.0712932E0,4.0596467E-1,1.5623488E0,3.1504788E0,4.608662E0,3.1625527E-1,3.9517027E-1,4.9247718E-1,7.063673E-1,-2.917261E-1,-1.5060832E-1,-2.3277836E-1,-1.8984175E-1,-1.5425046E-1,-1.02342986E-1,-6.399449E-2,3.0504728E-3,7.477702E-2,8.1608435E-3,6.1376702E-2,9.873352E-2,1.286023E-1,1.7089492E-1,2.626387E-1,2.1063729E-1],"categories":[],"categories_nodes":[],"categories_segments":[],"categories_sizes":[],"default_left":[0,0,0,0,0,0,0,0,0,0,0,0,0,0,0,0,0,0,0,0,0,0,0,0,0,0,0,0,0,0,0,0,0,0,0,0,0,0,0,0,0,0,0,0,0],"id":18,"left_children":[1,3,5,7,9,11,13,-1,15,17,19,21,23,25,27,-1,-1,29,31,33,35,37,39,41,43,-1,-1,-1,-1,-1,-1,-1,-1,-1,-1,-1,-1,-1,-1,-1,-1,-1,-1,-1,-1],"loss_changes":[3.4031582E4,5.734588E3,4.8284404E3,3.8812988E2,1.405498E3,9.0763086E2,7.8806055E2,0E0,5.6106445E1,1.3367676E2,1.4978711E2,5.4845856E1,1.655664E2,5.3003906E1,1.3791406E2,0E0,0E0,1.3097168E1,4.7229004E0,1.5608276E1,2.7476639E1,2.1708748E1,9.172333E0,1.8588135E1,1.943872E1,0E0,0E0,0E0,0E0,0E0,0E0,0E0,0E0,0E0,0E0,0E0,0E0,0E0,0E0,0E0,0E0,0E0,0E0,0E0,0E0],"parents":[2147483647,0,0,1,1,2,2,3,3,4,4,5,5,6,6,8,8,9,9,10,10,11,11,12,12,13,13,14,14,17,17,18,18,19,19,20,20,21,21,22,22,23,23,24,24],"right_children":[2,4,6,8,10,12,14,-1,16,18,20,22,24,26,28,-1,-1,30,32,34,36,38,40,42,44,-1,-1,-1,-1,-1,-1,-1,-1,-1,-1,-1,-1,-1,-1,-1,-1,-1,-1,-1,-1],"split_conditions":[2.184E3,2.166E3,2.199E3,2.152E3,2.176E3,2.19E3,2.207E3,-7.338813E-1,2.162E3,2.172E3,2.18E3,2.187E3,2.194E3,2.202E3,2.214E3,-5.4075456E-1,-3.8512963E-1,8.3E0,2.174E3,3.1E0,3.01E1,2.182E3,5E-1,2.192E3,2.193E3,3.1625527E-1,3.9517027E-1,4.9247718E-1,7.063673E-1,-2.917261E-1,-1.5060832E-1,-2.3277836E-1,-1.8984175E-1,-1.5425046E-1,-1.02342986E-1,-6.399449E-2,3.0504728E-3,7.477702E-2,8.1608435E-3,6.1376702E-2,9.873352E-2,1.286023E-1,1.7089492E-1,2.626387E-1,2.1063729E-1],"split_indices":[0,0,0,0,0,0,0,0,0,0,0,0,0,0,0,0,0,4,0,34,11,2,18,0,3,0,0,0,0,0,0,0,0,0,0,0,0,0,0,0,0,0,0,0,0],"split_type":[0,0,0,0,0,0,0,0,0,0,0,0,0,0,0,0,0,0,0,0,0,0,0,0,0,0,0,0,0,0,0,0,0,0,0,0,0,0,0,0,0,0,0,0,0],"sum_hessian":[1.376E3,6.42E2,7.34E2,1.17E2,5.25E2,5.03E2,2.31E2,3.5E1,8.2E1,3.14E2,2.11E2,1.65E2,3.38E2,1.69E2,6.2E1,6.1E1,2.1E1,1.87E2,1.27E2,9.6E1,1.15E2,8.2E1,8.3E1,1.76E2,1.62E2,7.5E1,9.4E1,4E1,2.2E1,1.82E2,5E0,7.3E1,5.4E1,6.5E1,3.1E1,9.7E1,1.8E1,1.4E1,6.8E1,4.8E1,3.5E1,5.9E1,1.17E2,5.7E1,1.05E2],"tree_param":{"num_deleted":"0","num_feature":"52","num_nodes":"45","size_leaf_vector":"1"}},{"base_weights":[-1.3932982E-2,-5.322573E0,4.1954265E0,-1.0804569E1,-3.8142076E0,2.3391752E0,7.8625364E0,-6.998953E-1,-9.383587E0,-4.927422E0,-1.8180172E0,7.738372E-1,3.4759388E0,6.942427E0,1.2385417E1,-5.1141745E-1,-3.6820582E-1,-5.3145065E0,-3.7913563E0,-2.4928617E0,-1.0979664E0,1.7487624E-1,1.4608935E0,2.694128E0,3.908878E0,5.772947E0,7.946976E0,5.1587623E-1,7.4097615E-1,-2.9704472E-1,-2.4935699E-1,-8.979187E-2,-1.9225417E-1,-6.859581E-2,-1.380753E-1,-6.313646E-2,-8.609445E-3,5.2488487E-2,-9.164174E-4,3.359558E-2,8.188341E-2,1.7651431E-1,1.2438355E-1,2.5528362E-1,1.8795827E-1,2.5931185E-1,3.266837E-1,3.5214657E-1,4.3706995E-1],"categories":[],"categories_nodes":[],"categories_segments":[],"categories_sizes":[],"default_left":[0,0,0,0,0,0,0,0,0,0,0,0,0,0,0,0,0,0,0,0,0,0,0,0,0,0,0,0,0,0,0,0,0,0,0,0,0,0,0,0,0,0,0,0,0,0,0,0,0],"id":19,"left_children":[1,3,5,7,9,11,13,-1,15,17,19,21,23,25,27,-1,-1,29,31,33,35,37,39,41,43,45,47,-1,-1,-1,-1,-1,-1,-1,-1,-1,-1,-1,-1,-1,-1,-1,-1,-1,-1,-1,-1,-1,-1],"loss_changes":[3.0569277E4,4.9614453E3,5.175409E3,4.5854785E2,1.0488037E3,9.012549E2,9.793711E2,0E0,8.333301E1,1.13975586E2,8.084161E1,8.82213E1,8.89812E1,2.067041E2,5.850537E1,0E0,0E0,1.6510254E1,1.7791748E0,2.2711365E1,1.2747925E1,1.9627121E1,1.2846832E1,9.861938E0,1.43125E1,1.2086426E1,1.959082E1,0E0,0E0,0E0,0E0,0E0,0E0,0E0,0E0,0E0,0E0,0E0,0E0,0E0,0E0,0E0,0E0,0E0,0E0,0E0,0E0,0E0,0E0],"parents":[2147483647,0,0,1,1,2,2,3,3,4,4,5,5,6,6,8,8,9,9,10,10,11,11,12,12,13,13,14,14,17,17,18,18,19,19,20,20,21,21,22,22,23,23,24,24,25,25,26,26],"right_children":[2,4,6,8,10,12,14,-1,16,18,20,22,24,26,28,-1,-1,30,32,34,36,38,40,42,44,46,48,-1,-1,-1,-1,-1,-1,-1,-1,-1,-1,-1,-1,-1,-1,-1,-1,-1,-1,-1,-1,-1,-1],"split_conditions":[2.183E3,2.167E3,2.197E3,2.152E3,2.176E3,2.19E3,2.21E3,-6.998953E-1,2.162E3,2.173E3,2.18E3,2.187E3,2.193E3,2.202E3,2.217E3,-5.1141745E-1,-3.6820582E-1,2.17E3,2.169E3,2.174E3,2.42E1,2.182E3,9.9E0,2.188E3,9.99E2,5.3E0,2.205E3,5.1587623E-1,7.4097615E-1,-2.9704472E-1,-2.4935699E-1,-8.979187E-2,-1.9225417E-1,-6.859581E-2,-1.380753E-1,-6.313646E-2,-8.609445E-3,5.2488487E-2,-9.164174E-4,3.359558E-2,8.188341E-2,1.7651431E-1,1.2438355E-1,2.5528362E-1,1.8795827E-1,2.5931185E-1,3.266837E-1,3.5214657E-1,4.3706995E-1],"split_indices":[0,0,0,0,0,0,0,0,0,0,0,0,0,0,0,0,0,0,3,3,11,2,12,3,9,10,0,0,0,0,0,0,0,0,0,0,0,0,0,0,0,0,0,0,0,0,0,0,0],"split_type":[0,0,0,0,0,0,0,0,0,0,0,0,0,0,0,0,0,0,0,0,0,0,0,0,0,0,0,0,0,0,0,0,0,0,0,0,0,0,0,0,0,0,0,0,0,0,0,0,0],"sum_hessian":[1.366E3,6.04E2,7.62E2,1.29E2,4.75E2,5.07E2,2.55E2,3.7E1,9.2E1,3.04E2,1.71E2,2.14E2,2.93E2,2.14E2,4.1E1,6.2E1,3E1,2.24E2,8E1,8.7E1,8.4E1,1.15E2,9.9E1,1.07E2,1.86E2,1.02E2,1.12E2,2.5E1,1.6E1,7.1E1,1.53E2,3E0,7.7E1,1.8E1,6.9E1,7.1E1,1.3E1,2E1,9.5E1,1.9E1,8E1,1.8E1,8.9E1,1.7E1,1.69E2,6.2E1,4E1,5.7E1,5.5E1],"tree_param":{"num_deleted":"0","num_feature":"52","num_nodes":"49","size_leaf_vector":"1"}},{"base_weights":[-1.991228E-3,-4.9550657E0,3.8965602E0,-1.0292183E1,-3.5443861E0,2.368209E0,7.485543E0,-1.1660931E1,-3.8571465E-1,-4.558421E0,-1.8367102E0,7.2599787E-1,3.3954873E0,6.4453583E0,1.0278756E1,-6.513328E-1,-5.075533E-1,-5.0523267E0,-3.8146815E0,-2.4074008E0,-1.1571289E0,1.1721026E-1,1.4824972E0,2.9169893E0,3.9130642E0,5.7115507E0,7.072568E0,4.4778618E-1,6.588135E-1,-2.5594208E-1,-1.4953613E-1,-2.0439683E-1,-1.2790723E-1,-1.3404483E-1,-4.1909028E-2,-6.6557966E-2,2.3018392E-2,8.48719E-2,-7.365507E-3,5.886349E-2,1.1867676E-1,1.3694723E-1,2.4830511E-1,1.8533307E-1,2.5415447E-1,2.900127E-1,1.2437134E-1,3.6229295E-1,2.2169648E-1],"categories":[],"categories_nodes":[],"categories_segments":[],"categories_sizes":[],"default_left":[0,0,0,0,0,0,0,0,0,0,0,0,0,0,0,0,0,0,0,0,0,0,0,0,0,0,0,0,0,0,0,0,0,0,0,0,0,0,0,0,0,0,0,0,0,0,0,0,0],"id":20,"left_children":[1,3,5,7,9,11,13,15,-1,17,19,21,23,25,27,-1,-1,29,31,33,35,37,39,41,43,45,47,-1,-1,-1,-1,-1,-1,-1,-1,-1,-1,-1,-1,-1,-1,-1,-1,-1,-1,-1,-1,-1,-1],"loss_changes":[2.6744094E4,4.5561855E3,4.2333223E3,3.581621E2,8.2974365E2,9.1695435E2,6.0491113E2,3.479297E1,0E0,9.203027E1,6.77995E1,9.700173E1,7.155151E1,3.8308105E1,1.1584082E2,0E0,0E0,9.236328E0,3.2461792E1,3.9812073E1,2.4539772E1,4.957434E1,2.2770813E1,5.1338623E1,1.9315186E1,9.595703E0,8.110352E0,0E0,0E0,0E0,0E0,0E0,0E0,0E0,0E0,0E0,0E0,0E0,0E0,0E0,0E0,0E0,0E0,0E0,0E0,0E0,0E0,0E0,0E0],"parents":[2147483647,0,0,1,1,2,2,3,3,4,4,5,5,6,6,7,7,9,9,10,10,11,11,12,12,13,13,14,14,17,17,18,18,19,19,20,20,21,21,22,22,23,23,24,24,25,25,26,26],"right_children":[2,4,6,8,10,12,14,16,-1,18,20,22,24,26,28,-1,-1,30,32,34,36,38,40,42,44,46,48,-1,-1,-1,-1,-1,-1,-1,-1,-1,-1,-1,-1,-1,-1,-1,-1,-1,-1,-1,-1,-1,-1],"split_conditions":[2.183E3,2.167E3,2.199E3,2.158E3,2.176E3,2.19E3,2.207E3,2.152E3,-3.8571465E-1,2.172E3,2.18E3,2.187E3,2.194E3,2.202E3,2.216E3,-6.513328E-1,-5.075533E-1,1.06E1,2.3E0,1.61E0,2.95E1,2.182E3,1.9E0,4.38E1,1.02E1,1E0,1.57E1,4.4778618E-1,6.588135E-1,-2.5594208E-1,-1.4953613E-1,-2.0439683E-1,-1.2790723E-1,-1.3404483E-1,-4.1909028E-2,-6.6557966E-2,2.3018392E-2,8.48719E-2,-7.365507E-3,5.886349E-2,1.1867676E-1,1.3694723E-1,2.4830511E-1,1.8533307E-1,2.5415447E-1,2.900127E-1,1.2437134E-1,3.6229295E-1,2.2169648E-1],"split_indices":[1,1,1,1,1,1,1,1,0,1,1,1,1,1,1,0,0,28,36,14,11,2,18,12,10,45,25,0,0,0,0,0,0,0,0,0,0,0,0,0,0,0,0,0,0,0,0,0,0],"split_type":[0,0,0,0,0,0,0,0,0,0,0,0,0,0,0,0,0,0,0,0,0,0,0,0,0,0,0,0,0,0,0,0,0,0,0,0,0,0,0,0,0,0,0,0,0,0,0,0,0],"sum_hessian":[1.383E3,6.09E2,7.74E2,1.26E2,4.83E2,5.44E2,2.3E2,8E1,4.6E1,3.02E2,1.81E2,2.1E2,3.34E2,1.7E2,6E1,3.8E1,4.2E1,1.78E2,1.24E2,9.7E1,8.4E1,1.17E2,9.3E1,1.77E2,1.57E2,8.3E1,8.7E1,4.4E1,1.6E1,1.71E2,7E0,1E2,2.4E1,8.2E1,1.5E1,7.6E1,8E0,1.6E1,1.01E2,7.1E1,2.2E1,1.65E2,1.2E1,1.37E2,2E1,8E1,3E0,8E1,7E0],"tree_param":{"num_deleted":"0","num_feature":"52","num_nodes":"49","size_leaf_vector":"1"}},{"base_weights":[1.6527142E-2,-4.581934E0,3.9367085E0,-9.672667E0,-3.327826E0,2.4308436E0,7.6196437E0,-1.0865663E1,-3.628318E-1,-4.3509893E0,-1.3618764E0,9.1880864E-1,3.4169583E0,6.8338437E0,6.0189766E-1,-6.345987E-1,-4.8587352E-1,-4.9481354E0,-3.6582758E0,-1.9183176E0,-7.50135E-1,3.7816405E-1,1.7030647E0,2.9275575E0,4.1690364E0,2.963947E-1,4.0803835E-1,-2.4964507E-1,-1.2092774E-1,-9.7611494E-2,-1.868125E-1,-1.0143884E-1,-1.5148926E-2,-5.4208267E-2,-1.5712193E-3,5.8129884E-2,1.0429501E-2,1.4430909E-1,7.624914E-2,1.681039E-1,1.3325033E-1,2.148331E-1,1.37931E-1],"categories":[],"categories_nodes":[],"categories_segments":[],"categories_sizes":[],"default_left":[0,0,0,0,0,0,0,0,0,0,0,0,0,0,0,0,0,0,0,0,0,0,0,0,0,0,0,0,0,0,0,0,0,0,0,0,0,0,0,0,0,0,0],"id":21,"left_children":[1,3,5,7,9,11,13,15,-1,17,19,21,23,25,-1,-1,-1,27,29,31,33,35,37,39,41,-1,-1,-1,-1,-1,-1,-1,-1,-1,-1,-1,-1,-1,-1,-1,-1,-1,-1],"loss_changes":[2.4678703E4,3.9899375E3,4.0799727E3,2.7855762E2,1.01389844E3,7.8114746E2,6.6072266E2,4.6520508E1,0E0,1.1964453E2,5.8130707E1,8.797273E1,1.0484033E2,1.7281543E2,0E0,0E0,0E0,7.854004E0,1.3724365E1,1.5622406E1,2.0371979E1,1.6384945E1,1.3507462E1,1.3400269E1,1.0287598E1,0E0,0E0,0E0,0E0,0E0,0E0,0E0,0E0,0E0,0E0,0E0,0E0,0E0,0E0,0E0,0E0,0E0,0E0],"parents":[2147483647,0,0,1,1,2,2,3,3,4,4,5,5,6,6,7,7,9,9,10,10,11,11,12,12,13,13,17,17,18,18,19,19,20,20,21,21,22,22,23,23,24,24],"right_children":[2,4,6,8,10,12,14,16,-1,18,20,22,24,26,-1,-1,-1,28,30,32,34,36,38,40,42,-1,-1,-1,-1,-1,-1,-1,-1,-1,-1,-1,-1,-1,-1,-1,-1,-1,-1],"split_conditions":[2.184E3,2.167E3,2.2E3,2.159E3,2.177E3,2.191E3,2.213E3,2.151E3,-3.628318E-1,2.172E3,2.181E3,2.188E3,2.195E3,2.205E3,6.0189766E-1,-6.345987E-1,-4.8587352E-1,1.03E1,2.169E3,3.5E-1,1.9E0,2.181E3,2.181E3,2.194E3,1.53E1,2.963947E-1,4.0803835E-1,-2.4964507E-1,-1.2092774E-1,-9.7611494E-2,-1.868125E-1,-1.0143884E-1,-1.5148926E-2,-5.4208267E-2,-1.5712193E-3,5.8129884E-2,1.0429501E-2,1.4430909E-1,7.624914E-2,1.681039E-1,1.3325033E-1,2.148331E-1,1.37931E-1],"split_indices":[0,0,0,0,0,0,0,0,0,0,0,0,0,0,0,0,0,28,3,35,34,3,3,3,7,0,0,0,0,0,0,0,0,0,0,0,0,0,0,0,0,0,0],"split_type":[0,0,0,0,0,0,0,0,0,0,0,0,0,0,0,0,0,0,0,0,0,0,0,0,0,0,0,0,0,0,0,0,0,0,0,0,0,0,0,0,0,0,0],"sum_hessian":[1.367E3,6.29E2,7.38E2,1.23E2,5.06E2,5.25E2,2.13E2,8E1,4.3E1,3.32E2,1.74E2,2.08E2,3.17E2,1.83E2,3E1,2.7E1,5.3E1,1.75E2,1.57E2,9E1,8.4E1,1.24E2,8.4E1,1.95E2,1.22E2,1.12E2,7.1E1,1.71E2,4E0,8E0,1.49E2,8.4E1,6E0,5.7E1,2.7E1,2.1E1,1.03E2,9E0,7.5E1,6.9E1,1.26E2,1.1E2,1.2E1],"tree_param":{"num_deleted":"0","num_feature":"52","num_nodes":"43","size_leaf_vector":"1"}},{"base_weights":[4.5695376E-2,-4.275164E0,3.6424575E0,-9.070403E0,-3.0967388E0,2.392474E0,7.0756984E0,-1.0071862E1,-3.2130367E-1,-4.1832104E0,-1.4813542E0,9.4920516E-1,3.3327584E0,6.016976E0,9.45005E0,-5.872843E-1,-4.5071015E-1,-4.652335E0,-3.522309E0,-2.2144005E0,-8.54794E-1,4.0049756E-1,1.6309179E0,2.8491678E0,4.0419326E0,3.197415E-1,2.5570175E-1,4.1683236E-1,5.8552104E-1,-2.5632343E-1,-2.1470736E-1,-1.8695766E-1,-1.446896E-1,-6.585022E-2,-1.2149642E-1,-5.229913E-2,-6.305949E-3,-7.466744E-3,3.1756233E-2,7.2238415E-2,1.3090123E-1,1.7035906E-1,1.3116322E-1,1.8642914E-1,2.4131183E-1],"categories":[],"categories_nodes":[],"categories_segments":[],"categories_sizes":[],"default_left":[0,0,0,0,0,0,0,0,0,0,0,0,0,0,0,0,0,0,0,0,0,0,0,0,0,0,0,0,0,0,0,0,0,0,0,0,0,0,0,0,0,0,0,0,0],"id":22,"left_children":[1,3,5,7,9,11,13,15,-1,17,19,21,23,25,27,-1,-1,29,31,33,35,37,39,41,43,-1,-1,-1,-1,-1,-1,-1,-1,-1,-1,-1,-1,-1,-1,-1,-1,-1,-1,-1,-1],"loss_changes":[2.1073768E4,3.4528242E3,3.1587783E3,2.5570801E2,8.643179E2,7.350901E2,4.383545E2,4.6371094E1,0E0,7.538623E1,9.0425995E1,8.014398E1,1.0131421E2,1.4720703E1,5.0859863E1,0E0,0E0,6.857422E0,6.4886475E0,1.4593811E1,1.5192657E1,1.5704523E1,1.3857513E1,1.6147339E1,1.4199951E1,0E0,0E0,0E0,0E0,0E0,0E0,0E0,0E0,0E0,0E0,0E0,0E0,0E0,0E0,0E0,0E0,0E0,0E0,0E0,0E0],"parents":[2147483647,0,0,1,1,2,2,3,3,4,4,5,5,6,6,7,7,9,9,10,10,11,11,12,12,13,13,14,14,17,17,18,18,19,19,20,20,21,21,22,22,23,23,24,24],"right_children":[2,4,6,8,10,12,14,16,-1,18,20,22,24,26,28,-1,-1,30,32,34,36,38,40,42,44,-1,-1,-1,-1,-1,-1,-1,-1,-1,-1,-1,-1,-1,-1,-1,-1,-1,-1,-1,-1],"split_conditions":[2.184E3,2.168E3,2.2E3,2.16E3,2.176E3,2.191E3,2.207E3,2.152E3,-3.2130367E-1,2.172E3,2.18E3,2.188E3,2.195E3,2.204E3,2.215E3,-5.872843E-1,-4.5071015E-1,2.17E3,1.4E0,2.173E3,2.1E0,2.185E3,1.37E1,2.193E3,9.94E0,3.197415E-1,2.5570175E-1,4.1683236E-1,5.8552104E-1,-2.5632343E-1,-2.1470736E-1,-1.8695766E-1,-1.446896E-1,-6.585022E-2,-1.2149642E-1,-5.229913E-2,-6.305949E-3,-7.466744E-3,3.1756233E-2,7.2238415E-2,1.3090123E-1,1.7035906E-1,1.3116322E-1,1.8642914E-1,2.4131183E-1],"split_indices":[0,0,0,0,0,0,0,0,0,0,0,0,0,3,0,0,0,0,36,3,24,0,10,3,13,0,0,0,0,0,0,0,0,0,0,0,0,0,0,0,0,0,0,0,0],"split_type":[0,0,0,0,0,0,0,0,0,0,0,0,0,0,0,0,0,0,0,0,0,0,0,0,0,0,0,0,0,0,0,0,0,0,0,0,0,0,0,0,0,0,0,0,0],"sum_hessian":[1.354E3,6.15E2,7.39E2,1.2E2,4.95E2,5.43E2,1.96E2,8.5E1,3.5E1,2.95E2,2E2,2.15E2,3.28E2,1.38E2,5.8E1,2.9E1,5.6E1,1.69E2,1.26E2,9.1E1,1.09E2,1.2E2,9.5E1,1.98E2,1.3E2,9.3E1,4.5E1,4.2E1,1.6E1,6.7E1,1.02E2,9E1,3.6E1,1.9E1,7.2E1,8.6E1,2.3E1,3.6E1,8.4E1,8.2E1,1.3E1,5.3E1,1.45E2,9.7E1,3.3E1],"tree_param":{"num_deleted":"0","num_feature":"52","num_nodes":"45","size_leaf_vector":"1"}},{"base_weights":[-7.7346236E-2,-4.145995E0,3.3992045E0,-8.85075E0,-2.9500291E0,2.030334E0,6.1847253E0,-5.435583E-1,-7.416238E0,-3.933267E0,-1.4582183E0,7.5203663E-1,2.8072572E0,5.475665E0,9.28328E0,-4.1360307E-1,-3.0642265E-1,-4.209597E0,-3.1034698E0,-2.0640297E0,-8.8437176E-1,2.4319783E-1,1.2373853E0,2.1766515E0,3.1731007E0,4.7119937E0,6.1851215E0,3.7352753E-1,5.456456E-1,-2.2467637E-1,-1.9228873E-1,-1.7068481E-2,-1.6033255E-1,-1.1694763E-1,-2.5443269E-2,-5.5118293E-2,3.134504E-2,9.1081545E-2,2.7319337E-3,4.620219E-2,8.49786E-2,2.0590258E-1,9.5777884E-2,1.6008493E-1,5.0714113E-2,1.9813876E-1,2.744242E-1,3.192394E-1,2.2441407E-1],"categories":[],"categories_nodes":[],"categories_segments":[],"categories_sizes":[],"default_left":[0,0,0,0,0,0,0,0,0,0,0,0,0,0,0,0,0,0,0,0,0,0,0,0,0,0,0,0,0,0,0,0,0,0,0,0,0,0,0,0,0,0,0,0,0,0,0,0,0],"id":23,"left_children":[1,3,5,7,9,11,13,-1,15,17,19,21,23,25,27,-1,-1,29,31,33,35,37,39,41,43,45,47,-1,-1,-1,-1,-1,-1,-1,-1,-1,-1,-1,-1,-1,-1,-1,-1,-1,-1,-1,-1,-1,-1],"loss_changes":[1.9463281E4,3.5412344E3,2.8167012E3,2.9036035E2,7.379341E2,4.934651E2,4.8525098E2,0E0,3.527002E1,5.6871582E1,6.874609E1,4.6622276E1,6.461133E1,7.975635E1,4.845459E1,0E0,0E0,6.0649414E0,2.1705017E1,4.0709686E1,3.561261E1,2.7877499E1,1.247728E1,5.141748E1,8.729614E0,3.70083E1,5.562256E0,0E0,0E0,0E0,0E0,0E0,0E0,0E0,0E0,0E0,0E0,0E0,0E0,0E0,0E0,0E0,0E0,0E0,0E0,0E0,0E0,0E0,0E0],"parents":[2147483647,0,0,1,1,2,2,3,3,4,4,5,5,6,6,8,8,9,9,10,10,11,11,12,12,13,13,14,14,17,17,18,18,19,19,20,20,21,21,22,22,23,23,24,24,25,25,26,26],"right_children":[2,4,6,8,10,12,14,-1,16,18,20,22,24,26,28,-1,-1,30,32,34,36,38,40,42,44,46,48,-1,-1,-1,-1,-1,-1,-1,-1,-1,-1,-1,-1,-1,-1,-1,-1,-1,-1,-1,-1,-1,-1],"split_conditions":[2.184E3,2.167E3,2.197E3,2.154E3,2.176E3,2.19E3,2.209E3,-5.435583E-1,2.16E3,2.173E3,2.18E3,2.187E3,2.193E3,2.202E3,2.24E0,-4.1360307E-1,-3.0642265E-1,2.171E3,9.881E2,7E-1,1.54E0,2.182E3,1.6E0,2.189E3,1E0,1.16E1,1.23E1,3.7352753E-1,5.456456E-1,-2.2467637E-1,-1.9228873E-1,-1.7068481E-2,-1.6033255E-1,-1.1694763E-1,-2.5443269E-2,-5.5118293E-2,3.134504E-2,9.1081545E-2,2.7319337E-3,4.620219E-2,8.49786E-2,2.0590258E-1,9.5777884E-2,1.6008493E-1,5.0714113E-2,1.9813876E-1,2.744242E-1,3.192394E-1,2.2441407E-1],"split_indices":[1,1,1,1,1,1,1,0,1,1,1,1,1,1,13,0,0,1,9,13,13,2,34,2,48,11,7,0,0,0,0,0,0,0,0,0,0,0,0,0,0,0,0,0,0,0,0,0,0],"split_type":[0,0,0,0,0,0,0,0,0,0,0,0,0,0,0,0,0,0,0,0,0,0,0,0,0,0,0,0,0,0,0,0,0,0,0,0,0,0,0,0,0,0,0,0,0,0,0,0,0],"sum_hessian":[1.374E3,6.33E2,7.41E2,1.27E2,5.06E2,4.98E2,2.43E2,5E1,7.7E1,3.04E2,2.02E2,1.89E2,3.09E2,2E2,4.3E1,4.3E1,3.4E1,2.25E2,7.9E1,9.7E1,1.05E2,9.3E1,9.6E1,1.16E2,1.93E2,1E2,1E2,2.3E1,2E1,1.2E2,1.05E2,3E0,7.6E1,8.2E1,1.5E1,9.2E1,1.3E1,9E0,8.4E1,5.9E1,3.7E1,1.2E1,1.04E2,1.9E2,3E0,5.4E1,4.6E1,8.7E1,1.3E1],"tree_param":{"num_deleted":"0","num_feature":"52","num_nodes":"49","size_leaf_vector":"1"}},{"base_weights":[-5.9832055E-2,-4.3008437E0,3.1891432E0,-9.073197E0,-3.2140677E0,1.7576824E0,6.0508046E0,-5.5090684E-1,-4.029059E-1,-4.193939E0,-1.9124634E0,2.909399E-1,2.57362E0,5.163206E0,8.730268E0,-5.381371E0,-3.9021676E0,-2.532771E0,-1.3415419E0,-2.856033E-1,6.8826324E-1,1.9602271E0,3.022599E0,4.1777377E0,2.8548348E-1,3.745951E-1,5.820219E-1,-2.7589163E-1,-1.18218996E-1,-9.161987E-2,-1.9608976E-1,-1.3083586E-1,-3.9074708E-2,-3.3706326E-2,-8.1807874E-2,-4.3363445E-3,-4.6632897E-2,2.6353994E-2,9.313965E-2,1.3168441E-1,8.874817E-2,1.5575789E-1,1.1055378E-1,1.7268677E-1,2.2837837E-1],"categories":[],"categories_nodes":[],"categories_segments":[],"categories_sizes":[],"default_left":[0,0,0,0,0,0,0,0,0,0,0,0,0,0,0,0,0,0,0,0,0,0,0,0,0,0,0,0,0,0,0,0,0,0,0,0,0,0,0,0,0,0,0,0,0],"id":24,"left_children":[1,3,5,7,9,11,13,-1,-1,15,17,19,21,23,25,27,29,31,33,35,37,39,41,43,-1,-1,-1,-1,-1,-1,-1,-1,-1,-1,-1,-1,-1,-1,-1,-1,-1,-1,-1,-1,-1],"loss_changes":[1.8932201E4,3.0619795E3,3.1763286E3,1.2838281E2,6.1310156E2,6.21572E2,5.7090137E2,0E0,0E0,7.49707E1,7.132727E1,4.303342E1,8.605859E1,8.223584E1,1.398335E2,8.362305E0,1.9946289E0,1.2656372E1,2.0919693E1,9.827774E0,2.0032085E1,1.329187E1,7.4588623E0,5.1105957E0,0E0,0E0,0E0,0E0,0E0,0E0,0E0,0E0,0E0,0E0,0E0,0E0,0E0,0E0,0E0,0E0,0E0,0E0,0E0,0E0,0E0],"parents":[2147483647,0,0,1,1,2,2,3,3,4,4,5,5,6,6,9,9,10,10,11,11,12,12,13,13,14,14,15,15,16,16,17,17,18,18,19,19,20,20,21,21,22,22,23,23],"right_children":[2,4,6,8,10,12,14,-1,-1,16,18,20,22,24,26,28,30,32,34,36,38,40,42,44,-1,-1,-1,-1,-1,-1,-1,-1,-1,-1,-1,-1,-1,-1,-1,-1,-1,-1,-1,-1,-1],"split_conditions":[2.182E3,2.163E3,2.197E3,2.151E3,2.174E3,2.189E3,2.207E3,-5.5090684E-1,-4.029059E-1,2.169E3,2.178E3,2.185E3,2.193E3,2.201E3,2.216E3,2.17E3,2.164E3,1.02E1,2.18E3,1.4E1,5.26E1,2.188E3,2.201E3,8.4E0,2.8548348E-1,3.745951E-1,5.820219E-1,-2.7589163E-1,-1.18218996E-1,-9.161987E-2,-1.9608976E-1,-1.3083586E-1,-3.9074708E-2,-3.3706326E-2,-8.1807874E-2,-4.3363445E-3,-4.6632897E-2,2.6353994E-2,9.313965E-2,1.3168441E-1,8.874817E-2,1.5575789E-1,1.1055378E-1,1.7268677E-1,2.2837837E-1],"split_indices":[0,0,0,0,0,0,0,0,0,0,0,0,0,0,0,1,3,34,3,38,12,3,3,11,0,0,0,0,0,0,0,0,0,0,0,0,0,0,0,0,0,0,0,0,0],"split_type":[0,0,0,0,0,0,0,0,0,0,0,0,0,0,0,0,0,0,0,0,0,0,0,0,0,0,0,0,0,0,0,0,0,0,0,0,0,0,0,0,0,0,0,0,0],"sum_hessian":[1.372E3,5.95E2,7.77E2,1.09E2,4.86E2,5.19E2,2.58E2,3.4E1,7.5E1,2.76E2,2.1E2,1.86E2,3.33E2,1.96E2,6.2E1,5.1E1,2.25E2,9.9E1,1.11E2,7.6E1,1.1E2,1.43E2,1.9E2,7.3E1,1.23E2,4.6E1,1.6E1,4.8E1,3E0,3E0,2.22E2,9.4E1,5E0,3.5E1,7.6E1,5.9E1,1.7E1,9.8E1,1.2E1,2.8E1,1.15E2,1.68E2,2.2E1,2.9E1,4.4E1],"tree_param":{"num_deleted":"0","num_feature":"52","num_nodes":"45","size_leaf_vector":"1"}},{"base_weights":[2.7500197E-2,-4.0671973E0,2.9746375E0,-8.693315E0,-3.0563986E0,1.6519408E0,5.6886663E0,-5.2926934E-1,-3.8916066E-1,-3.9738917E0,-1.774037E0,4.162545E-1,2.5500157E0,4.604134E0,7.7463217E0,-5.176851E0,-3.6621735E0,-2.57098E0,-1.2520003E0,-1.2500605E-1,1.0025272E0,1.9815625E0,2.906821E0,3.9182284E0,2.5550386E-1,3.4655187E-1,5.419771E-1,-2.6502287E-1,-1.13787845E-1,-1.8991259E-1,-1.4462858E-1,-1.0902877E-1,-1.4883627E-1,-3.662266E-2,-7.365254E-2,-1.4695867E-2,2.5173714E-2,3.6679078E-2,7.307831E-2,8.173232E-2,1.3664006E-1,1.4184953E-1,2.0791474E-1,1.7704222E-1,2.3415636E-1],"categories":[],"categories_nodes":[],"categories_segments":[],"categories_sizes":[],"default_left":[0,0,0,0,0,0,0,0,0,0,0,0,0,0,0,0,0,0,0,0,0,0,0,0,0,0,0,0,0,0,0,0,0,0,0,0,0,0,0,0,0,0,0,0,0],"id":25,"left_children":[1,3,5,7,9,11,13,-1,-1,15,17,19,21,23,25,27,29,31,33,35,37,39,41,43,-1,-1,-1,-1,-1,-1,-1,-1,-1,-1,-1,-1,-1,-1,-1,-1,-1,-1,-1,-1,-1],"loss_changes":[1.6810246E4,2.699581E3,2.898371E3,9.6697266E1,5.5769775E2,6.0485596E2,5.5570605E2,0E0,0E0,8.566211E1,8.0819885E1,7.342769E1,5.8333252E1,4.105493E1,1.5183838E2,7.6602783E0,1.257666E1,6.0230103E0,1.3161972E1,1.2993029E1,1.26315E1,2.8109894E1,4.9819336E0,6.221924E0,0E0,0E0,0E0,0E0,0E0,0E0,0E0,0E0,0E0,0E0,0E0,0E0,0E0,0E0,0E0,0E0,0E0,0E0,0E0,0E0,0E0],"parents":[2147483647,0,0,1,1,2,2,3,3,4,4,5,5,6,6,9,9,10,10,11,11,12,12,13,13,14,14,15,15,16,16,17,17,18,18,19,19,20,20,21,21,22,22,23,23],"right_children":[2,4,6,8,10,12,14,-1,-1,16,18,20,22,24,26,28,30,32,34,36,38,40,42,44,-1,-1,-1,-1,-1,-1,-1,-1,-1,-1,-1,-1,-1,-1,-1,-1,-1,-1,-1,-1,-1],"split_conditions":[2.182E3,2.162E3,2.197E3,2.151E3,2.174E3,2.19E3,2.205E3,-5.2926934E-1,-3.8916066E-1,2.169E3,2.177E3,2.186E3,2.193E3,2.201E3,2.216E3,2.17E3,2.3E0,1.0079E3,6.6E0,5.4E0,8E-1,9E-1,3.53E1,6.5E0,2.5550386E-1,3.4655187E-1,5.419771E-1,-2.6502287E-1,-1.13787845E-1,-1.8991259E-1,-1.4462858E-1,-1.0902877E-1,-1.4883627E-1,-3.662266E-2,-7.365254E-2,-1.4695867E-2,2.5173714E-2,3.6679078E-2,7.307831E-2,8.173232E-2,1.3664006E-1,1.4184953E-1,2.0791474E-1,1.7704222E-1,2.3415636E-1],"split_indices":[0,0,0,0,0,0,0,0,0,0,0,0,0,0,0,1,6,21,7,4,24,36,11,10,0,0,0,0,0,0,0,0,0,0,0,0,0,0,0,0,0,0,0,0,0],"split_type":[0,0,0,0,0,0,0,0,0,0,0,0,0,0,0,0,0,0,0,0,0,0,0,0,0,0,0,0,0,0,0,0,0,0,0,0,0,0,0,0,0,0,0,0,0],"sum_hessian":[1.391E3,5.82E2,8.09E2,1.03E2,4.79E2,5.45E2,2.64E2,3E1,7.3E1,2.78E2,2.01E2,2.3E2,3.15E2,1.75E2,8.9E1,5.4E1,2.24E2,7.8E1,1.23E2,1.2E2,1.1E2,1.24E2,1.91E2,7.8E1,9.7E1,7.3E1,1.6E1,5.1E1,3E0,1.87E2,3.7E1,4.3E1,3.5E1,3.8E1,8.5E1,9.5E1,2.5E1,7.1E1,3.9E1,8.7E1,3.7E1,1.84E2,7E0,5.6E1,2.2E1],"tree_param":{"num_deleted":"0","num_feature":"52","num_nodes":"45","size_leaf_vector":"1"}},{"base_weights":[1.7386157E-2,-3.547863E0,3.0613472E0,-7.626122E0,-2.572093E0,1.9715583E0,5.85395E0,-4.7777334E-1,-6.489474E0,-3.3311677E0,-1.0061524E0,9.4792193E-1,2.7718601E0,5.340996E0,4.818078E-1,-3.5827884E-1,-2.584428E-1,-3.7005856E0,-2.52449E0,-1.3988173E0,-5.2791554E-1,3.4285787E-1,1.4582734E0,2.4430065E0,3.5744658E0,4.6540527E0,3.1698617E-1,-2.1205814E-1,-1.7179607E-1,-8.798479E-2,-1.3774265E-1,-3.509478E-2,-8.431784E-2,-3.6639024E-2,2.606295E-2,3.2169016E-3,4.234491E-2,6.649743E-2,1.2307693E-1,1.4232457E-1,1.08223096E-1,1.548182E-1,2.2517608E-1,2.112849E-1,2.65437E-1],"categories":[],"categories_nodes":[],"categories_segments":[],"categories_sizes":[],"default_left":[0,0,0,0,0,0,0,0,0,0,0,0,0,0,0,0,0,0,0,0,0,0,0,0,0,0,0,0,0,0,0,0,0,0,0,0,0,0,0,0,0,0,0,0,0],"id":26,"left_children":[1,3,5,7,9,11,13,-1,15,17,19,21,23,25,-1,-1,-1,27,29,31,33,35,37,39,41,43,-1,-1,-1,-1,-1,-1,-1,-1,-1,-1,-1,-1,-1,-1,-1,-1,-1,-1,-1],"loss_changes":[1.4585742E4,2.4436597E3,2.1948848E3,1.9895557E2,5.9217017E2,4.258235E2,3.4237305E2,0E0,3.26062E1,9.108423E1,3.0246368E1,7.083176E1,6.860181E1,9.467334E1,0E0,0E0,0E0,1.8191162E1,1.4355957E1,1.685167E1,1.6717337E1,1.496673E1,1.2819244E1,1.7552979E1,2.2922607E1,8.695557E0,0E0,0E0,0E0,0E0,0E0,0E0,0E0,0E0,0E0,0E0,0E0,0E0,0E0,0E0,0E0,0E0,0E0,0E0,0E0],"parents":[2147483647,0,0,1,1,2,2,3,3,4,4,5,5,6,6,8,8,9,9,10,10,11,11,12,12,13,13,17,17,18,18,19,19,20,20,21,21,22,22,23,23,24,24,25,25],"right_children":[2,4,6,8,10,12,14,-1,16,18,20,22,24,26,-1,-1,-1,28,30,32,34,36,38,40,42,44,-1,-1,-1,-1,-1,-1,-1,-1,-1,-1,-1,-1,-1,-1,-1,-1,-1,-1,-1],"split_conditions":[2.184E3,2.167E3,2.2E3,2.154E3,2.177E3,2.192E3,2.214E3,-4.7777334E-1,2.162E3,2.173E3,2.181E3,2.188E3,2.196E3,2.205E3,4.818078E-1,-3.5827884E-1,-2.584428E-1,2.17E3,2.173E3,2.18E3,5.4E0,1.7E0,5.7E0,2.194E3,6.5E0,9E-1,3.1698617E-1,-2.1205814E-1,-1.7179607E-1,-8.798479E-2,-1.3774265E-1,-3.509478E-2,-8.431784E-2,-3.6639024E-2,2.606295E-2,3.2169016E-3,4.234491E-2,6.649743E-2,1.2307693E-1,1.4232457E-1,1.08223096E-1,1.548182E-1,2.2517608E-1,2.112849E-1,2.65437E-1],"split_indices":[0,0,0,0,0,0,0,0,0,0,0,0,0,0,0,0,0,0,2,3,16,24,4,3,10,24,0,0,0,0,0,0,0,0,0,0,0,0,0,0,0,0,0,0,0],"split_type":[0,0,0,0,0,0,0,0,0,0,0,0,0,0,0,0,0,0,0,0,0,0,0,0,0,0,0,0,0,0,0,0,0,0,0,0,0,0,0,0,0,0,0,0,0],"sum_hessian":[1.342E3,6.18E2,7.24E2,1.18E2,5E2,5.22E2,2.02E2,4.1E1,7.7E1,3.36E2,1.64E2,2.3E2,2.92E2,1.8E2,2.2E1,4.8E1,2.9E1,2.28E2,1.08E2,8.9E1,7.5E1,1.06E2,1.24E2,2.1E2,8.2E1,1.1E2,7E1,7E1,1.58E2,2.7E1,8.1E1,2.7E1,6.2E1,6.3E1,1.2E1,6.9E1,3.7E1,1.12E2,1.2E1,8.2E1,1.28E2,5.7E1,2.5E1,7.1E1,3.9E1],"tree_param":{"num_deleted":"0","num_feature":"52","num_nodes":"45","size_leaf_vector":"1"}},{"base_weights":[-1.973876E-2,-3.6223853E0,2.726678E0,-7.7766967E0,-2.7308605E0,1.5343969E0,5.0608387E0,-4.8699126E-1,-3.436811E-1,-3.5920315E0,-1.6082921E0,4.225055E-1,2.3164032E0,4.1171665E0,6.753797E0,-4.697438E0,-3.3324308E0,-2.2298965E0,-1.0820658E0,-1.7447093E-1,7.563529E-1,1.9587417E0,2.7847035E0,3.6681163E0,4.6107316E0,3.0943546E-1,4.8993388E-1,-2.410876E-1,-1.01565555E-1,-1.7282385E-1,-1.3268493E-1,-1.20972715E-1,-6.2123615E-2,-2.4948357E-2,-6.730987E-2,-1.8414898E-2,2.5142416E-2,2.145029E-2,5.6918718E-2,9.307381E-2,1.4825876E-1,2.1446012E-1,1.3390869E-1,1.57774E-1,2.0894912E-1,2.4693863E-1,1.6574387E-1],"categories":[],"categories_nodes":[],"categories_segments":[],"categories_sizes":[],"default_left":[0,0,0,0,0,0,0,0,0,0,0,0,0,0,0,0,0,0,0,0,0,0,0,0,0,0,0,0,0,0,0,0,0,0,0,0,0,0,0,0,0,0,0,0,0,0,0],"id":27,"left_children":[1,3,5,7,9,11,13,-1,-1,15,17,19,21,23,25,27,29,31,33,35,37,39,41,43,45,-1,-1,-1,-1,-1,-1,-1,-1,-1,-1,-1,-1,-1,-1,-1,-1,-1,-1,-1,-1,-1,-1],"loss_changes":[1.3792732E4,2.2120776E3,2.1935684E3,1.2097412E2,4.7565137E2,4.5551196E2,3.9875195E2,0E0,0E0,6.498291E1,6.8895874E1,4.357915E1,4.61333E1,2.1651855E1,1.01098145E2,7.1087646E0,1.0276367E1,1.5524109E1,1.7810074E1,1.0556538E1,1.7019127E1,1.190509E1,9.508667E0,1.1954712E1,1.7210815E1,0E0,0E0,0E0,0E0,0E0,0E0,0E0,0E0,0E0,0E0,0E0,0E0,0E0,0E0,0E0,0E0,0E0,0E0,0E0,0E0,0E0,0E0],"parents":[2147483647,0,0,1,1,2,2,3,3,4,4,5,5,6,6,9,9,10,10,11,11,12,12,13,13,14,14,15,15,16,16,17,17,18,18,19,19,20,20,21,21,22,22,23,23,24,24],"right_children":[2,4,6,8,10,12,14,-1,-1,16,18,20,22,24,26,28,30,32,34,36,38,40,42,44,46,-1,-1,-1,-1,-1,-1,-1,-1,-1,-1,-1,-1,-1,-1,-1,-1,-1,-1,-1,-1,-1,-1],"split_conditions":[2.182E3,2.163E3,2.197E3,2.151E3,2.174E3,2.19E3,2.205E3,-4.8699126E-1,-3.436811E-1,2.169E3,2.178E3,2.185E3,2.194E3,5.5E0,2.217E3,2.17E3,2.6E0,1.61E0,2.18E3,3E0,2.98E1,6.6E0,9.828E2,2.201E3,2.206E3,3.0943546E-1,4.8993388E-1,-2.410876E-1,-1.01565555E-1,-1.7282385E-1,-1.3268493E-1,-1.20972715E-1,-6.2123615E-2,-2.4948357E-2,-6.730987E-2,-1.8414898E-2,2.5142416E-2,2.145029E-2,5.6918718E-2,9.307381E-2,1.4825876E-1,2.1446012E-1,1.3390869E-1,1.57774E-1,2.0894912E-1,2.4693863E-1,1.6574387E-1],"split_indices":[0,0,0,0,0,0,0,0,0,0,0,0,0,10,0,1,6,14,3,22,12,16,39,0,3,0,0,0,0,0,0,0,0,0,0,0,0,0,0,0,0,0,0,0,0,0,0],"split_type":[0,0,0,0,0,0,0,0,0,0,0,0,0,0,0,0,0,0,0,0,0,0,0,0,0,0,0,0,0,0,0,0,0,0,0,0,0,0,0,0,0,0,0,0,0,0,0],"sum_hessian":[1.392E3,6.02E2,7.9E2,1.05E2,4.97E2,5.24E2,2.66E2,3E1,7.5E1,2.8E2,2.17E2,2.17E2,3.07E2,1.73E2,9.3E1,5E1,2.3E2,9.8E1,1.19E2,7.8E1,1.39E2,1.77E2,1.3E2,9.5E1,7.8E1,8.1E1,1.2E1,4.7E1,3E0,1.91E2,3.9E1,8.1E1,1.7E1,3.8E1,8.1E1,6.1E1,1.7E1,7.6E1,6.3E1,1.64E2,1.3E1,6E0,1.24E2,5.1E1,4.4E1,6E1,1.8E1],"tree_param":{"num_deleted":"0","num_feature":"52","num_nodes":"47","size_leaf_vector":"1"}},{"base_weights":[-1.0987555E-1,-3.2098215E0,2.7355564E0,-6.9188824E0,-2.3276627E0,1.7489326E0,5.3866677E0,-7.9335384E0,-5.2585206E0,-3.135273E0,-1.0718398E0,5.702575E-1,2.3366125E0,4.819264E0,4.4010717E-1,-4.862488E-1,-3.620395E-1,-2.7636394E-1,-1.8153809E-1,-3.4895442E0,-2.5864277E0,-1.5544333E0,-6.4045787E-1,1.0435982E-1,9.889305E-1,1.9585211E0,2.9439435E0,4.1531234E0,2.7956578E-1,-1.7818041E-1,-1.04389444E-1,-1.4151236E-1,-1.0854798E-1,-9.29588E-2,-4.535393E-2,-4.038372E-2,1.341824E-2,3.9523553E-2,-1.1368013E-3,1.7834473E-2,5.926726E-2,1.1900846E-1,9.064428E-2,1.9994184E-1,1.3804053E-1,1.694449E-1,2.3329778E-1],"categories":[],"categories_nodes":[],"categories_segments":[],"categories_sizes":[],"default_left":[0,0,0,0,0,0,0,0,0,0,0,0,0,0,0,0,0,0,0,0,0,0,0,0,0,0,0,0,0,0,0,0,0,0,0,0,0,0,0,0,0,0,0,0,0,0,0],"id":28,"left_children":[1,3,5,7,9,11,13,15,17,19,21,23,25,27,-1,-1,-1,-1,-1,29,31,33,35,37,39,41,43,45,-1,-1,-1,-1,-1,-1,-1,-1,-1,-1,-1,-1,-1,-1,-1,-1,-1,-1,-1],"loss_changes":[1.1943168E4,2.1041392E3,1.837227E3,1.6718408E2,5.291028E2,3.560924E2,3.277295E2,2.2659668E1,1.8054199E0,5.3000977E1,4.2098145E1,3.364196E1,7.322571E1,6.215161E1,0E0,0E0,0E0,0E0,0E0,1.2389404E1,6.923279E0,1.7449402E1,1.7085434E1,7.2557287E0,1.0877716E1,8.887512E0,1.4074219E1,2.0636108E1,0E0,0E0,0E0,0E0,0E0,0E0,0E0,0E0,0E0,0E0,0E0,0E0,0E0,0E0,0E0,0E0,0E0,0E0,0E0],"parents":[2147483647,0,0,1,1,2,2,3,3,4,4,5,5,6,6,7,7,8,8,9,9,10,10,11,11,12,12,13,13,19,19,20,20,21,21,22,22,23,23,24,24,25,25,26,26,27,27],"right_children":[2,4,6,8,10,12,14,16,18,20,22,24,26,28,-1,-1,-1,-1,-1,30,32,34,36,38,40,42,44,46,-1,-1,-1,-1,-1,-1,-1,-1,-1,-1,-1,-1,-1,-1,-1,-1,-1,-1,-1],"split_conditions":[2.184E3,2.167E3,2.2E3,2.158E3,2.176E3,2.19E3,2.212E3,2.15E3,2.45E0,2.172E3,2.18E3,2.187E3,2.195E3,2.204E3,4.4010717E-1,-4.862488E-1,-3.620395E-1,-2.7636394E-1,-1.8153809E-1,6.5E0,3E-1,2.2E0,4.6E0,2.182E3,1.76E1,2.193E3,9.957E2,5E-1,2.7956578E-1,-1.7818041E-1,-1.04389444E-1,-1.4151236E-1,-1.0854798E-1,-9.29588E-2,-4.535393E-2,-4.038372E-2,1.341824E-2,3.9523553E-2,-1.1368013E-3,1.7834473E-2,5.926726E-2,1.1900846E-1,9.064428E-2,1.9994184E-1,1.3804053E-1,1.694449E-1,2.3329778E-1],"split_indices":[0,0,0,0,0,0,0,0,13,0,0,0,0,0,0,0,0,0,0,4,16,22,18,2,12,3,9,22,0,0,0,0,0,0,0,0,0,0,0,0,0,0,0,0,0,0,0],"split_type":[0,0,0,0,0,0,0,0,0,0,0,0,0,0,0,0,0,0,0,0,0,0,0,0,0,0,0,0,0,0,0,0,0,0,0,0,0,0,0,0,0,0,0,0,0,0,0],"sum_hessian":[1.352E3,6.47E2,7.05E2,1.23E2,5.24E2,5.15E2,1.9E2,7.4E1,4.9E1,3.18E2,2.06E2,1.72E2,3.43E2,1.65E2,2.5E1,1.7E1,5.7E1,4E1,9E0,1.9E2,1.28E2,9.6E1,1.1E2,8.2E1,9E1,2.14E2,1.29E2,9.2E1,7.3E1,1.79E2,1.1E1,7.7E1,5.1E1,6.4E1,3.2E1,9.3E1,1.7E1,1.2E1,7E1,2.2E1,6.8E1,5.1E1,1.63E2,1.6E1,1.13E2,4E1,5.2E1],"tree_param":{"num_deleted":"0","num_feature":"52","num_nodes":"47","size_leaf_vector":"1"}},{"base_weights":[-8.989959E-2,-3.086982E0,2.5793717E0,-7.1039047E0,-2.289806E0,1.4976765E0,4.6031995E0,-4.7924376E-1,-6.451913E0,-3.244872E0,-1.2484607E0,6.085906E-1,2.1548636E0,3.7156868E0,6.387028E0,-3.3342418E-1,-2.3530836E-1,-2.1537438E-1,-3.0175738E0,-1.9881808E0,-7.6301825E-1,2.4741498E-1,1.113011E0,1.916428E0,2.7100937E0,3.4562001E0,2.1798395E-1,2.8165647E-1,4.5723954E-1,-1.6538696E-1,-1.3901423E-1,-5.8311064E-2,-1.0752157E-1,-1.6244071E-3,-4.5666877E-2,4.1689724E-2,3.7257697E-3,4.763023E-2,1.1719429E-1,8.962481E-2,1.39912E-1,1.4271398E-1,7.148926E-2,1.5324484E-1,1.877518E-1],"categories":[],"categories_nodes":[],"categories_segments":[],"categories_sizes":[],"default_left":[0,0,0,0,0,0,0,0,0,0,0,0,0,0,0,0,0,0,0,0,0,0,0,0,0,0,0,0,0,0,0,0,0,0,0,0,0,0,0,0,0,0,0,0,0],"id":29,"left_children":[1,3,5,7,9,11,13,-1,15,17,19,21,23,25,27,-1,-1,-1,29,31,33,35,37,39,41,43,-1,-1,-1,-1,-1,-1,-1,-1,-1,-1,-1,-1,-1,-1,-1,-1,-1,-1,-1],"loss_changes":[1.0919999E4,2.0427446E3,1.5736826E3,1.0962207E2,5.310188E2,2.744762E2,3.7364355E2,0E0,1.5097656E0,5.463037E1,9.148767E1,3.6525856E1,3.0682983E1,1.3340332E1,1.18970215E2,0E0,0E0,0E0,6.915283E0,1.1095184E1,1.732074E1,1.2002657E1,1.4352173E1,1.607611E1,1.0502563E1,3.2250977E0,0E0,0E0,0E0,0E0,0E0,0E0,0E0,0E0,0E0,0E0,0E0,0E0,0E0,0E0,0E0,0E0,0E0,0E0,0E0],"parents":[2147483647,0,0,1,1,2,2,3,3,4,4,5,5,6,6,8,8,9,9,10,10,11,11,12,12,13,13,14,14,18,18,19,19,20,20,21,21,22,22,23,23,24,24,25,25],"right_children":[2,4,6,8,10,12,14,-1,16,18,20,22,24,26,28,-1,-1,-1,30,32,34,36,38,40,42,44,-1,-1,-1,-1,-1,-1,-1,-1,-1,-1,-1,-1,-1,-1,-1,-1,-1,-1,-1],"split_conditions":[2.184E3,2.163E3,2.197E3,2.15E3,2.174E3,2.191E3,2.205E3,-4.7924376E-1,2.16E3,2.169E3,2.178E3,2.188E3,2.195E3,1E0,2.216E3,-3.3342418E-1,-2.3530836E-1,-2.1537438E-1,2.171E3,1E3,2.174E3,2.184E3,1.84E1,4.4E0,1.53E1,2.201E3,2.1798395E-1,2.8165647E-1,4.5723954E-1,-1.6538696E-1,-1.3901423E-1,-5.8311064E-2,-1.0752157E-1,-1.6244071E-3,-4.5666877E-2,4.1689724E-2,3.7257697E-3,4.763023E-2,1.1719429E-1,8.962481E-2,1.39912E-1,1.4271398E-1,7.148926E-2,1.5324484E-1,1.877518E-1],"split_indices":[0,0,0,0,0,0,0,0,0,0,0,0,0,24,0,0,0,0,0,27,3,3,10,36,7,0,0,0,0,0,0,0,0,0,0,0,0,0,0,0,0,0,0,0,0],"split_type":[0,0,0,0,0,0,0,0,0,0,0,0,0,0,0,0,0,0,0,0,0,0,0,0,0,0,0,0,0,0,0,0,0,0,0,0,0,0,0,0,0,0,0,0,0],"sum_hessian":[1.363E3,6.42E2,7.21E2,1.05E2,5.37E2,4.71E2,2.5E2,1.9E1,8.6E1,2.79E2,2.58E2,2.01E2,2.7E2,1.69E2,8.1E1,7.4E1,1.2E1,4.6E1,2.33E2,1.01E2,1.57E2,1.18E2,8.3E1,1.92E2,7.8E1,1.25E2,4.4E1,6.6E1,1.5E1,9.9E1,1.34E2,1.8E1,8.3E1,2.7E1,1.3E2,2.6E1,9.2E1,7.5E1,8E0,1.71E2,2.1E1,6.9E1,9E0,5.9E1,6.6E1],"tree_param":{"num_deleted":"0","num_feature":"52","num_nodes":"45","size_leaf_vector":"1"}},{"base_weights":[4.551471E-2,-2.892922E0,2.5482726E0,-6.2989907E0,-2.065786E0,1.5123767E0,4.6823044E0,-4.1000938E-1,-5.510772E0,-2.7215571E0,-8.27372E-1,6.84104E-1,2.22418E0,4.1222377E0,7.1783757E0,-3.015406E-1,-2.2148846E-1,-3.0434792E0,-2.076431E0,-1.1760101E0,-4.1415957E-1,3.609452E-1,1.2124801E0,2.757097E0,1.9586722E0,3.7286396E0,2.4077325E-1,3.0021846E-1,4.484782E-1,-1.7296606E-1,-1.4131787E-1,-1.0872791E-1,-5.3056844E-2,-2.8056119E-2,-7.042431E-2,-3.224073E-2,3.097098E-3,2.624694E-3,3.0738069E-2,4.3767236E-2,8.165219E-2,1.21013835E-1,1.7702027E-1,7.0393614E-2,1.0614488E-1,1.9983362E-1,1.518129E-1],"categories":[],"categories_nodes":[],"categories_segments":[],"categories_sizes":[],"default_left":[0,0,0,0,0,0,0,0,0,0,0,0,0,0,0,0,0,0,0,0,0,0,0,0,0,0,0,0,0,0,0,0,0,0,0,0,0,0,0,0,0,0,0,0,0,0,0],"id":30,"left_children":[1,3,5,7,9,11,13,-1,15,17,19,21,23,25,27,-1,-1,29,31,33,35,37,39,41,43,45,-1,-1,-1,-1,-1,-1,-1,-1,-1,-1,-1,-1,-1,-1,-1,-1,-1,-1,-1,-1,-1],"loss_changes":[1.0104683E4,1.7675103E3,1.6332095E3,1.3913281E2,4.119275E2,2.9385168E2,3.087173E2,0E0,2.3879883E1,6.283789E1,2.5155914E1,3.9346962E1,3.26615E1,3.6615723E1,3.6566895E1,0E0,0E0,1.0086304E1,9.050079E0,1.2932541E1,9.154604E0,1.1398058E1,1.1047775E1,1.4384827E1,1.3564575E1,1.2361816E1,0E0,0E0,0E0,0E0,0E0,0E0,0E0,0E0,0E0,0E0,0E0,0E0,0E0,0E0,0E0,0E0,0E0,0E0,0E0,0E0,0E0],"parents":[2147483647,0,0,1,1,2,2,3,3,4,4,5,5,6,6,8,8,9,9,10,10,11,11,12,12,13,13,14,14,17,17,18,18,19,19,20,20,21,21,22,22,23,23,24,24,25,25],"right_children":[2,4,6,8,10,12,14,-1,16,18,20,22,24,26,28,-1,-1,30,32,34,36,38,40,42,44,46,-1,-1,-1,-1,-1,-1,-1,-1,-1,-1,-1,-1,-1,-1,-1,-1,-1,-1,-1,-1,-1],"split_conditions":[2.184E3,2.167E3,2.199E3,2.152E3,2.177E3,2.192E3,2.21E3,-4.1000938E-1,2.16E3,2.173E3,2.181E3,2.189E3,2.193E3,2.204E3,2.218E3,-3.015406E-1,-2.2148846E-1,2.17E3,1.02E1,2.18E3,1.9E0,2.186E3,1.736E1,5.7E0,2.193E3,2.204E3,2.4077325E-1,3.0021846E-1,4.484782E-1,-1.7296606E-1,-1.4131787E-1,-1.0872791E-1,-5.3056844E-2,-2.8056119E-2,-7.042431E-2,-3.224073E-2,3.097098E-3,2.624694E-3,3.0738069E-2,4.3767236E-2,8.165219E-2,1.21013835E-1,1.7702027E-1,7.0393614E-2,1.0614488E-1,1.9983362E-1,1.518129E-1],"split_indices":[0,0,0,0,0,0,0,0,0,0,0,0,3,0,0,0,0,0,34,3,34,0,15,10,0,3,0,0,0,0,0,0,0,0,0,0,0,0,0,0,0,0,0,0,0,0,0],"split_type":[0,0,0,0,0,0,0,0,0,0,0,0,0,0,0,0,0,0,0,0,0,0,0,0,0,0,0,0,0,0,0,0,0,0,0,0,0,0,0,0,0,0,0,0,0,0,0],"sum_hessian":[1.372E3,6.31E2,7.41E2,1.22E2,5.09E2,5E2,2.41E2,3.3E1,8.9E1,3.32E2,1.77E2,2.32E2,2.68E2,1.99E2,4.2E1,5.7E1,3.2E1,2.19E2,1.13E2,9.5E1,8.2E1,1.45E2,8.7E1,8.6E1,1.82E2,1.31E2,6.8E1,2.8E1,1.4E1,7E1,1.49E2,1.02E2,1.1E1,2.7E1,6.8E1,5.5E1,2.7E1,6.6E1,7.9E1,5E1,3.7E1,6.3E1,2.3E1,4.4E1,1.38E2,9.1E1,4E1],"tree_param":{"num_deleted":"0","num_feature":"52","num_nodes":"47","size_leaf_vector":"1"}},{"base_weights":[-3.579787E-2,-2.9395797E0,2.2289736E0,-5.9708114E0,-2.1710234E0,1.3502227E0,4.723685E0,-6.651291E0,-2.2829734E-1,-2.8179102E0,-1.3658088E0,4.1343498E-1,2.093112E0,4.2927275E0,4.2153808E-1,-4.2282802E-1,-3.0873987E-1,-3.3286161E0,-2.562508E0,-1.8031273E0,-9.510348E-1,-7.595215E-2,8.390775E-1,1.7466786E0,2.5574815E0,3.691526E0,2.5273547E-1,-1.7001145E-1,-5.05249E-2,-6.2236678E-2,-1.300073E-1,-1.0674172E-1,-6.273688E-2,-2.3931243E-2,-5.8591057E-2,5.8050468E-3,-3.2799073E-2,3.6819268E-2,1.0348145E-1,8.083511E-2,1.2446759E-1,1.09019235E-1,1.453832E-1,1.5767917E-1,2.066504E-1],"categories":[],"categories_nodes":[],"categories_segments":[],"categories_sizes":[],"default_left":[0,0,0,0,0,0,0,0,0,0,0,0,0,0,0,0,0,0,0,0,0,0,0,0,0,0,0,0,0,0,0,0,0,0,0,0,0,0,0,0,0,0,0,0,0],"id":31,"left_children":[1,3,5,7,9,11,13,15,-1,17,19,21,23,25,-1,-1,-1,27,29,31,33,35,37,39,41,43,-1,-1,-1,-1,-1,-1,-1,-1,-1,-1,-1,-1,-1,-1,-1,-1,-1,-1,-1],"loss_changes":[9.095141E3,1.3988188E3,1.6969849E3,8.6260254E1,2.487793E2,3.999901E2,2.8652295E2,1.6598145E1,0E0,2.6427002E1,3.782779E1,5.338954E1,4.7173096E1,6.5173584E1,0E0,0E0,0E0,1.0840698E1,5.840088E0,1.6421356E1,1.1329529E1,1.344373E1,1.5788368E1,1.402655E1,1.1487305E1,1.2140381E1,0E0,0E0,0E0,0E0,0E0,0E0,0E0,0E0,0E0,0E0,0E0,0E0,0E0,0E0,0E0,0E0,0E0,0E0,0E0],"parents":[2147483647,0,0,1,1,2,2,3,3,4,4,5,5,6,6,7,7,9,9,10,10,11,11,12,12,13,13,17,17,18,18,19,19,20,20,21,21,22,22,23,23,24,24,25,25],"right_children":[2,4,6,8,10,12,14,16,-1,18,20,22,24,26,-1,-1,-1,28,30,32,34,36,38,40,42,44,-1,-1,-1,-1,-1,-1,-1,-1,-1,-1,-1,-1,-1,-1,-1,-1,-1,-1,-1],"split_conditions":[2.182E3,2.166E3,2.2E3,2.158E3,2.174E3,2.191E3,2.216E3,2.149E3,-2.2829734E-1,2.17E3,2.178E3,2.186E3,2.195E3,2.205E3,4.2153808E-1,-4.2282802E-1,-3.0873987E-1,1.08E1,2.169E3,1.9E0,2.18E3,1.39E1,3.47E1,3.6E0,2.499E1,5E-1,2.5273547E-1,-1.7001145E-1,-5.05249E-2,-6.2236678E-2,-1.300073E-1,-1.0674172E-1,-6.273688E-2,-2.3931243E-2,-5.8591057E-2,5.8050468E-3,-3.2799073E-2,3.6819268E-2,1.0348145E-1,8.083511E-2,1.2446759E-1,1.09019235E-1,1.453832E-1,1.5767917E-1,2.066504E-1],"split_indices":[0,0,0,0,0,0,0,0,0,0,0,0,0,0,0,0,0,22,3,34,3,38,11,36,15,22,0,0,0,0,0,0,0,0,0,0,0,0,0,0,0,0,0,0,0],"split_type":[0,0,0,0,0,0,0,0,0,0,0,0,0,0,0,0,0,0,0,0,0,0,0,0,0,0,0,0,0,0,0,0,0,0,0,0,0,0,0,0,0,0,0,0,0],"sum_hessian":[1.381E3,6.05E2,7.76E2,1.21E2,4.84E2,5.75E2,2.01E2,7.9E1,4.2E1,2.67E2,2.17E2,2.55E2,3.2E2,1.82E2,1.9E1,1.3E1,6.6E1,8.5E1,1.82E2,1.04E2,1.13E2,1.19E2,1.36E2,1.86E2,1.34E2,1.05E2,7.7E1,8.2E1,3E0,6E0,1.76E2,6.3E1,4.1E1,3.7E1,7.6E1,9E1,2.9E1,1.27E2,9E0,1.61E2,2.5E1,6.8E1,6.6E1,5.1E1,5.4E1],"tree_param":{"num_deleted":"0","num_feature":"52","num_nodes":"45","size_leaf_vector":"1"}},{"base_weights":[-4.8251588E-2,-2.8445146E0,2.1016653E0,-5.551805E0,-2.0403035E0,1.2887661E0,4.3964453E0,-6.4901004E0,-4.376449E0,-2.6438065E0,-1.2892035E0,3.1837898E-1,1.9114691E0,3.7621849E0,6.3397727E0,-4.14151E-1,-2.941802E-1,-2.3134625E-1,-1.4631754E-1,-2.8243484E0,-2.1944597E0,-1.692975E0,-8.9231557E-1,-5.157792E-2,6.9546646E-1,1.5667555E0,2.416028E0,3.4702847E0,2.2174953E-1,2.675695E-1,4.0787274E-1,-1.4634392E-1,-1.0243835E-1,-1.17689565E-1,-7.199478E-2,-8.988847E-2,-2.7978515E-2,-2.294132E-2,-5.4099556E-2,5.359475E-3,-2.3088455E-2,2.364815E-2,5.9273034E-2,6.491769E-2,9.1011785E-2,1.09506E-1,1.5514831E-1,1.7813003E-1,1.1493919E-1],"categories":[],"categories_nodes":[],"categories_segments":[],"categories_sizes":[],"default_left":[0,0,0,0,0,0,0,0,0,0,0,0,0,0,0,0,0,0,0,0,0,0,0,0,0,0,0,0,0,0,0,0,0,0,0,0,0,0,0,0,0,0,0,0,0,0,0,0,0],"id":32,"left_children":[1,3,5,7,9,11,13,15,17,19,21,23,25,27,29,-1,-1,-1,-1,31,33,35,37,39,41,43,45,47,-1,-1,-1,-1,-1,-1,-1,-1,-1,-1,-1,-1,-1,-1,-1,-1,-1,-1,-1,-1,-1],"loss_changes":[8.1879463E3,1.2775942E3,1.4307109E3,1.20478516E2,2.0419897E2,3.4382123E2,2.2389648E2,3.064624E1,9.342407E0,1.4327026E1,3.1501282E1,3.1285238E1,5.6567993E1,1.485376E1,4.258142E1,0E0,0E0,0E0,0E0,8.078613E0,5.8681946E0,1.0990234E1,8.219116E0,7.473746E0,1.1541145E1,1.1855896E1,1.4774841E1,3.9229736E0,0E0,0E0,0E0,0E0,0E0,0E0,0E0,0E0,0E0,0E0,0E0,0E0,0E0,0E0,0E0,0E0,0E0,0E0,0E0,0E0,0E0],"parents":[2147483647,0,0,1,1,2,2,3,3,4,4,5,5,6,6,7,7,8,8,9,9,10,10,11,11,12,12,13,13,14,14,19,19,20,20,21,21,22,22,23,23,24,24,25,25,26,26,27,27],"right_children":[2,4,6,8,10,12,14,16,18,20,22,24,26,28,30,-1,-1,-1,-1,32,34,36,38,40,42,44,46,48,-1,-1,-1,-1,-1,-1,-1,-1,-1,-1,-1,-1,-1,-1,-1,-1,-1,-1,-1,-1,-1],"split_conditions":[2.182E3,2.168E3,2.2E3,2.157E3,2.174E3,2.19E3,2.209E3,2.15E3,2.45E0,2.172E3,2.178E3,2.186E3,2.195E3,2.205E3,2.218E3,-4.14151E-1,-2.941802E-1,-2.3134625E-1,-1.4631754E-1,2.3E0,2.8E-1,8.1E0,2.18E3,1.39E1,2.5E0,2.193E3,1.015E1,2.208E3,2.2174953E-1,2.675695E-1,4.0787274E-1,-1.4634392E-1,-1.0243835E-1,-1.17689565E-1,-7.199478E-2,-8.988847E-2,-2.7978515E-2,-2.294132E-2,-5.4099556E-2,5.359475E-3,-2.3088455E-2,2.364815E-2,5.9273034E-2,6.491769E-2,9.1011785E-2,1.09506E-1,1.5514831E-1,1.7813003E-1,1.1493919E-1],"split_indices":[0,0,0,0,0,0,0,0,13,0,0,0,0,0,0,0,0,0,0,6,17,34,3,38,34,0,13,3,0,0,0,0,0,0,0,0,0,0,0,0,0,0,0,0,0,0,0,0,0],"split_type":[0,0,0,0,0,0,0,0,0,0,0,0,0,0,0,0,0,0,0,0,0,0,0,0,0,0,0,0,0,0,0,0,0,0,0,0,0,0,0,0,0,0,0,0,0,0,0,0,0],"sum_hessian":[1.36E3,5.91E2,7.69E2,1.34E2,4.57E2,5.69E2,2E2,7.2E1,6.2E1,2.52E2,2.05E2,2.23E2,3.46E2,1.53E2,4.7E1,1.5E1,5.7E1,5.1E1,1.1E1,1.76E2,7.6E1,1E2,1.05E2,1.13E2,1.1E2,2.08E2,1.38E2,1.11E2,4.2E1,3.3E1,1.4E1,1.53E2,2.3E1,6.1E1,1.5E1,9.1E1,9E0,3.3E1,7.2E1,8.2E1,3.1E1,7.7E1,3.3E1,1.04E2,1.04E2,1.07E2,3.1E1,1.01E2,1E1],"tree_param":{"num_deleted":"0","num_feature":"52","num_nodes":"49","size_leaf_vector":"1"}},{"base_weights":[5.7482244E-3,-2.5894055E0,2.0361462E0,-5.125188E0,-1.7328309E0,1.2663457E0,4.131174E0,-6.205956E0,-3.9021358E0,-2.216339E0,-8.07132E-1,3.3522782E-1,1.7861301E0,3.5687034E0,6.255912E0,-3.858954E-1,-2.79927E-1,-2.0631348E-1,-1.3727295E-1,-2.4706662E0,-1.7416399E0,-2.3457189E-1,-9.405354E-1,2.1927048E-2,5.823782E-1,1.3934202E0,2.1523464E0,3.0804482E0,2.081682E-1,2.5986287E-1,4.0009943E-1,-1.2508722E-1,-4.071045E-2,-9.1041274E-2,-3.3854168E-2,2.5252685E-2,-2.8005151E-2,-6.0649704E-2,-3.469663E-2,-1.11804E-2,2.3012472E-2,5.9526064E-2,2.0779453E-2,6.245785E-2,1.04578055E-1,9.601519E-2,1.3988712E-1,1.6355683E-1,1.1706437E-1],"categories":[],"categories_nodes":[],"categories_segments":[],"categories_sizes":[],"default_left":[0,0,0,0,0,0,0,0,0,0,0,0,0,0,0,0,0,0,0,0,0,0,0,0,0,0,0,0,0,0,0,0,0,0,0,0,0,0,0,0,0,0,0,0,0,0,0,0,0],"id":33,"left_children":[1,3,5,7,9,11,13,15,17,19,21,23,25,27,29,-1,-1,-1,-1,31,33,35,37,39,41,43,45,47,-1,-1,-1,-1,-1,-1,-1,-1,-1,-1,-1,-1,-1,-1,-1,-1,-1,-1,-1,-1,-1],"loss_changes":[7.2504155E3,1.3030593E3,1.239814E3,1.767024E2,2.0096619E2,2.733343E2,2.2506055E2,2.9343262E1,7.856079E0,3.1553345E1,1.1771263E1,1.5783436E1,4.92063E1,3.5372314E1,3.6048218E1,0E0,0E0,0E0,0E0,7.7957764E0,7.7869873E0,7.746787E0,7.691292E0,9.896654E0,1.1068443E1,1.5314789E1,2.2482727E1,5.7314453E0,0E0,0E0,0E0,0E0,0E0,0E0,0E0,0E0,0E0,0E0,0E0,0E0,0E0,0E0,0E0,0E0,0E0,0E0,0E0,0E0,0E0],"parents":[2147483647,0,0,1,1,2,2,3,3,4,4,5,5,6,6,7,7,8,8,9,9,10,10,11,11,12,12,13,13,14,14,19,19,20,20,21,21,22,22,23,23,24,24,25,25,26,26,27,27],"right_children":[2,4,6,8,10,12,14,16,18,20,22,24,26,28,30,-1,-1,-1,-1,32,34,36,38,40,42,44,46,48,-1,-1,-1,-1,-1,-1,-1,-1,-1,-1,-1,-1,-1,-1,-1,-1,-1,-1,-1,-1,-1],"split_conditions":[2.183E3,2.169E3,2.2E3,2.158E3,2.177E3,2.19E3,2.21E3,2.15E3,2.45E0,2.173E3,2.175E3,2.186E3,2.194E3,2.204E3,2.219E3,-3.858954E-1,-2.79927E-1,-2.0631348E-1,-1.3727295E-1,9.8E0,1.02E1,1.09E1,2.18E3,1.2E0,2.185E3,2.1E1,1.946E1,2.206E3,2.081682E-1,2.5986287E-1,4.0009943E-1,-1.2508722E-1,-4.071045E-2,-9.1041274E-2,-3.3854168E-2,2.5252685E-2,-2.8005151E-2,-6.0649704E-2,-3.469663E-2,-1.11804E-2,2.3012472E-2,5.9526064E-2,2.0779453E-2,6.245785E-2,1.04578055E-1,9.601519E-2,1.3988712E-1,1.6355683E-1,1.1706437E-1],"split_indices":[0,0,0,0,0,0,0,0,14,0,3,0,0,0,0,0,0,0,0,22,34,26,0,22,3,11,14,3,0,0,0,0,0,0,0,0,0,0,0,0,0,0,0,0,0,0,0,0,0],"split_type":[0,0,0,0,0,0,0,0,0,0,0,0,0,0,0,0,0,0,0,0,0,0,0,0,0,0,0,0,0,0,0,0,0,0,0,0,0,0,0,0,0,0,0,0,0,0,0,0,0],"sum_hessian":[1.374E3,6.03E2,7.71E2,1.51E2,4.52E2,5.65E2,2.06E2,7.8E1,7.3E1,2.96E2,1.56E2,2.03E2,3.62E2,1.65E2,4.1E1,1.9E1,5.9E1,5.9E1,1.4E1,1.9E2,1.06E2,3E1,1.26E2,9E1,1.13E2,1.77E2,1.85E2,9.4E1,7.1E1,2.8E1,1.3E1,1.86E2,4E0,9.8E1,8E0,9E0,2.1E1,5.8E1,6.8E1,5.8E1,3.2E1,2.3E1,9E1,1.49E2,2.8E1,1.39E2,4.6E1,7.2E1,2.2E1],"tree_param":{"num_deleted":"0","num_feature":"52","num_nodes":"49","size_leaf_vector":"1"}},{"base_weights":[8.595671E-2,-2.248586E0,2.1765208E0,-4.742452E0,-1.5386705E0,1.5020583E0,4.1115828E0,-5.9526787E0,-3.7019846E0,-2.179454E0,-5.996844E-1,7.1589243E-1,1.9413213E0,3.7420115E0,3.6662462E-1,-3.7021556E-1,-2.6572725E-1,-1.9716914E-1,-1.2948142E-1,-2.5012648E0,-1.8664204E0,-9.679398E-1,-3.0306768E-1,4.4498482E-1,1.0929871E0,1.5970875E0,2.3052025E0,3.3388627E0,4.394439E0,-1.2880222E-1,-6.814631E-2,-9.857733E-2,-6.052297E-2,4.082574E-3,-5.350445E-2,-2.1490412E-2,8.519531E-3,1.5949376E-2,7.446899E-2,8.6675785E-2,3.9375957E-2,1.4572023E-1,7.551018E-2,1.0078757E-1,1.2992491E-1,1.7397647E-1,1.1906021E-1,1.9988093E-1,2.7760574E-1],"categories":[],"categories_nodes":[],"categories_segments":[],"categories_sizes":[],"default_left":[0,0,0,0,0,0,0,0,0,0,0,0,0,0,0,0,0,0,0,0,0,0,0,0,0,0,0,0,0,0,0,0,0,0,0,0,0,0,0,0,0,0,0,0,0,0,0,0,0],"id":34,"left_children":[1,3,5,7,9,11,13,15,17,19,21,23,25,27,-1,-1,-1,-1,-1,29,31,33,35,37,39,41,43,45,47,-1,-1,-1,-1,-1,-1,-1,-1,-1,-1,-1,-1,-1,-1,-1,-1,-1,-1,-1,-1],"loss_changes":[6.6423896E3,1.131092E3,9.30905E2,1.5677002E2,3.0073975E2,1.8301831E2,1.9277759E2,1.9934814E1,1.1001221E1,2.535144E1,2.2098946E1,1.9230087E1,3.915735E1,2.951587E1,0E0,0E0,0E0,0E0,0E0,8.746948E0,8.302124E0,9.843925E0,6.9739676E0,1.4526279E1,1.4287689E1,1.6085846E1,8.684814E0,6.2631836E0,5.8276367E0,0E0,0E0,0E0,0E0,0E0,0E0,0E0,0E0,0E0,0E0,0E0,0E0,0E0,0E0,0E0,0E0,0E0,0E0,0E0,0E0],"parents":[2147483647,0,0,1,1,2,2,3,3,4,4,5,5,6,6,7,7,8,8,9,9,10,10,11,11,12,12,13,13,19,19,20,20,21,21,22,22,23,23,24,24,25,25,26,26,27,27,28,28],"right_children":[2,4,6,8,10,12,14,16,18,20,22,24,26,28,-1,-1,-1,-1,-1,30,32,34,36,38,40,42,44,46,48,-1,-1,-1,-1,-1,-1,-1,-1,-1,-1,-1,-1,-1,-1,-1,-1,-1,-1,-1,-1],"split_conditions":[2.185E3,2.169E3,2.201E3,2.157E3,2.177E3,2.192E3,2.217E3,2.15E3,9.8E-1,2.172E3,2.181E3,2.189E3,2.195E3,2.206E3,3.6662462E-1,-3.7021556E-1,-2.6572725E-1,-1.9716914E-1,-1.2948142E-1,7E0,2.8E-1,2.175E3,1.9E0,5.26E1,2.19E3,2.191E3,2E-1,2.206E3,2.95E1,-1.2880222E-1,-6.814631E-2,-9.857733E-2,-6.052297E-2,4.082574E-3,-5.350445E-2,-2.1490412E-2,8.519531E-3,1.5949376E-2,7.446899E-2,8.6675785E-2,3.9375957E-2,1.4572023E-1,7.551018E-2,1.0078757E-1,1.2992491E-1,1.7397647E-1,1.1906021E-1,1.9988093E-1,2.7760574E-1],"split_indices":[0,0,0,0,0,0,0,0,13,0,0,0,0,0,0,0,0,0,0,34,17,2,24,12,2,1,22,2,11,0,0,0,0,0,0,0,0,0,0,0,0,0,0,0,0,0,0,0,0],"split_type":[0,0,0,0,0,0,0,0,0,0,0,0,0,0,0,0,0,0,0,0,0,0,0,0,0,0,0,0,0,0,0,0,0,0,0,0,0,0,0,0,0,0,0,0,0,0,0,0,0],"sum_hessian":[1.359E3,6.42E2,7.17E2,1.41E2,5.01E2,5.33E2,1.84E2,6.3E1,7.8E1,2.97E2,2.04E2,1.92E2,3.41E2,1.67E2,1.7E1,1.6E1,4.7E1,6.2E1,1.6E1,1.43E2,1.54E2,9E1,1.14E2,1.13E2,7.9E1,1.78E2,1.63E2,1.07E2,6E1,1.33E2,1E1,1.31E2,2.3E1,8E0,8.2E1,9E1,2.4E1,1.02E2,1.1E1,2.4E1,5.5E1,9E0,1.69E2,8.6E1,7.7E1,9.1E1,1.6E1,4.8E1,1.2E1],"tree_param":{"num_deleted":"0","num_feature":"52","num_nodes":"49","size_leaf_vector":"1"}},{"base_weights":[-1.7496802E-2,-2.2577806E0,1.9588948E0,-4.872855E0,-1.5810324E0,1.2488093E0,3.744965E0,-3.3353493E-1,-4.249538E0,-2.0763626E0,-6.820822E-1,5.4342705E-1,1.7652441E0,3.3714917E0,6.5300293E0,-2.3605724E-1,-1.710613E-1,-2.370098E0,-1.7307727E0,-9.429896E-1,-3.616688E-1,2.4026082E-1,8.7220246E-1,1.5575659E0,2.2856474E0,2.9348898E0,2.035894E-1,3.5874432E-1,1.9694825E-1,-1.2051441E-1,-2.4069825E-2,-6.7335784E-2,-9.749658E-2,-2.9041827E-2,-6.125317E-2,-3.131583E-2,6.4035724E-3,7.322091E-3,5.362142E-2,3.992955E-2,1.00138344E-1,8.6663246E-2,5.927002E-2,1.0127538E-1,1.6485825E-1,1.612912E-1,1.1588891E-1],"categories":[],"categories_nodes":[],"categories_segments":[],"categories_sizes":[],"default_left":[0,0,0,0,0,0,0,0,0,0,0,0,0,0,0,0,0,0,0,0,0,0,0,0,0,0,0,0,0,0,0,0,0,0,0,0,0,0,0,0,0,0,0,0,0,0,0],"id":35,"left_children":[1,3,5,7,9,11,13,-1,15,17,19,21,23,25,27,-1,-1,29,31,33,35,37,39,41,43,45,-1,-1,-1,-1,-1,-1,-1,-1,-1,-1,-1,-1,-1,-1,-1,-1,-1,-1,-1,-1,-1],"loss_changes":[6.22531E3,1.1585596E3,9.427156E2,1.22937256E2,2.3235425E2,1.9429681E2,1.984956E2,0E0,2.4083496E1,3.0208984E1,1.537542E1,2.251603E1,2.9835571E1,4.5836426E1,1.1839172E1,0E0,0E0,1.2502869E1,1.0756958E1,9.810287E0,1.122656E1,9.211728E0,7.471855E0,1.2592529E1,1.5951294E1,1.4067993E1,0E0,0E0,0E0,0E0,0E0,0E0,0E0,0E0,0E0,0E0,0E0,0E0,0E0,0E0,0E0,0E0,0E0,0E0,0E0,0E0,0E0],"parents":[2147483647,0,0,1,1,2,2,3,3,4,4,5,5,6,6,8,8,9,9,10,10,11,11,12,12,13,13,14,14,17,17,18,18,19,19,20,20,21,21,22,22,23,23,24,24,25,25],"right_children":[2,4,6,8,10,12,14,-1,16,18,20,22,24,26,28,-1,-1,30,32,34,36,38,40,42,44,46,-1,-1,-1,-1,-1,-1,-1,-1,-1,-1,-1,-1,-1,-1,-1,-1,-1,-1,-1,-1,-1],"split_conditions":[2.184E3,2.168E3,2.2E3,2.151E3,2.177E3,2.192E3,2.214E3,-3.3353493E-1,2.16E3,2.172E3,2.181E3,2.188E3,2.196E3,2.205E3,2.22E3,-2.3605724E-1,-1.710613E-1,1.08E1,2.173E3,1.15E1,1.9E0,9.4E0,8.9E0,2.196E3,1.06E1,2.204E3,2.035894E-1,3.5874432E-1,1.9694825E-1,-1.2051441E-1,-2.4069825E-2,-6.7335784E-2,-9.749658E-2,-2.9041827E-2,-6.125317E-2,-3.131583E-2,6.4035724E-3,7.322091E-3,5.362142E-2,3.992955E-2,1.00138344E-1,8.6663246E-2,5.927002E-2,1.0127538E-1,1.6485825E-1,1.612912E-1,1.1588891E-1],"split_indices":[0,0,0,0,0,0,0,0,0,0,0,0,0,0,3,0,0,22,3,26,34,16,16,3,10,3,0,0,0,0,0,0,0,0,0,0,0,0,0,0,0,0,0,0,0,0,0],"split_type":[0,0,0,0,0,0,0,0,0,0,0,0,0,0,0,0,0,0,0,0,0,0,0,0,0,0,0,0,0,0,0,0,0,0,0,0,0,0,0,0,0,0,0,0,0,0,0],"sum_hessian":[1.404E3,6.58E2,7.46E2,1.34E2,5.24E2,5.35E2,2.11E2,3.2E1,1.02E2,3.37E2,1.87E2,2.27E2,3.08E2,1.88E2,2.3E1,6.2E1,4E1,1.79E2,1.58E2,1.02E2,8.5E1,1.19E2,1.08E2,2.23E2,8.5E1,1.19E2,6.9E1,1.7E1,6E0,1.75E2,4E0,6E1,9.8E1,4.6E1,5.6E1,5.5E1,3E1,1.08E2,1.1E1,1.03E2,5E0,1.49E2,7.4E1,7E1,1.5E1,7.8E1,4.1E1],"tree_param":{"num_deleted":"0","num_feature":"52","num_nodes":"47","size_leaf_vector":"1"}},{"base_weights":[-8.851933E-3,-2.1988118E0,1.8542603E0,-4.6685553E0,-1.5559347E0,1.0782765E0,3.2907639E0,-5.9228983E0,-4.01684E0,-2.092808E0,-7.1529466E-1,5.276065E-1,1.6043168E0,2.8790133E0,4.988251E0,-3.6040416E-1,-2.5842774E-1,-4.1928368E0,-1.2018489E-1,-2.4873354E0,-1.8291435E0,-1.2037991E0,-4.580247E-1,8.962971E-3,7.55249E-1,1.9375188E0,1.3489835E0,2.4318953E0,3.2070043E0,2.102963E-1,3.321821E-1,